{"internalDocumentIDStore":{"internalIdToId":["b592a2d39b1e3a37d20f8163273b46be","2b666891e3e6ccafb49cc7fcb282d137","97daa85f47b9506c6647ec254d96d616"]},"index":{"indexes":{"id":{"type":"Radix","node":{"w":"","s":"","c":{"2":{"w":"2b666891e3e6ccafb49cc7fcb282d137","s":"2b666891e3e6ccafb49cc7fcb282d137","c":{},"d":[2],"e":true},"9":{"w":"97daa85f47b9506c6647ec254d96d616","s":"97daa85f47b9506c6647ec254d96d616","c":{},"d":[3],"e":true},"b":{"w":"b592a2d39b1e3a37d20f8163273b46be","s":"b592a2d39b1e3a37d20f8163273b46be","c":{},"d":[1],"e":true}},"d":[],"e":false},"isArray":false},"title":{"type":"Radix","node":{"w":"","s":"","c":{"o":{"w":"obsidian","s":"obsidian","c":{},"d":[1],"e":true}},"d":[],"e":false},"isArray":false},"path":{"type":"Radix","node":{"w":"","s":"","c":{"o":{"w":"obsidian","s":"obsidian","c":{},"d":[1],"e":true},"m":{"w":"md","s":"md","c":{},"d":[1,2,3],"e":true}},"d":[],"e":false},"isArray":false},"content":{"type":"Radix","node":{"w":"","s":"","c":{"0":{"w":"03","s":"03","c":{},"d":[1,2,3],"e":true},"1":{"w":"1","s":"1","c":{"6":{"w":"16","s":"6","c":{},"d":[1,2,3],"e":true},"7":{"w":"17","s":"7","c":{},"d":[1,2,3],"e":true},"8":{"w":"18","s":"8","c":{},"d":[1,2,3],"e":true}},"d":[1,2,3],"e":true},"2":{"w":"2","s":"2","c":{"0":{"w":"202","s":"02","c":{"4":{"w":"2024121120","s":"4121120","c":{"1":{"w":"20241211201706","s":"1706","c":{},"d":[2],"e":true},"2":{"w":"20241211202255","s":"2255","c":{},"d":[2],"e":true}},"d":[],"e":false},"5":{"w":"2025","s":"5","c":{},"d":[1,2,3],"e":true}},"d":[],"e":false}},"d":[1,2,3],"e":true},"3":{"w":"3","s":"3","c":{"1":{"w":"31","s":"1","c":{},"d":[1,2,3],"e":true}},"d":[1,2,3],"e":true},"4":{"w":"4","s":"4","c":{},"d":[1,2,3],"e":true},"5":{"w":"5","s":"5","c":{"0":{"w":"50588-faktornyy_analiz_pribyli_ot_prodazh","s":"0588-faktornyy_analiz_pribyli_ot_prodazh","c":{},"d":[3],"e":true}},"d":[1,3],"e":true},"6":{"w":"6","s":"6","c":{},"d":[3],"e":true},"7":{"w":"7","s":"7","c":{"1":{"w":"711884","s":"11884","c":{},"d":[3],"e":true}},"d":[3],"e":true},"8":{"w":"8","s":"8","c":{},"d":[3],"e":true},"n":{"w":"not","s":"not","c":{"e":{"w":"note","s":"e","c":{},"d":[1,2,3],"e":true},"i":{"w":"notion","s":"ion","c":{},"d":[1],"e":true}},"d":[],"e":false},"t":{"w":"t","s":"t","c":{"i":{"w":"title","s":"itle","c":{},"d":[1,2,3],"e":true},"o":{"w":"todos","s":"odos","c":{},"d":[1],"e":true}},"d":[],"e":false},"o":{"w":"o","s":"o","c":{"b":{"w":"obsidian","s":"bsidian","c":{},"d":[1,2,3],"e":true},"r":{"w":"oracle","s":"racle","c":{},"d":[3],"e":true}},"d":[],"e":false},"m":{"w":"m","s":"m","c":{"e":{"w":"metadata","s":"etadata","c":{},"d":[1,2,3],"e":true},"o":{"w":"modified","s":"odified","c":{},"d":[1,2,3],"e":true},"a":{"w":"markdown","s":"arkdown","c":{},"d":[1],"e":true}},"d":[],"e":false},"c":{"w":"c","s":"c","c":{"r":{"w":"created","s":"reated","c":{},"d":[1,2,3],"e":true},"o":{"w":"co","s":"o","c":{"n":{"w":"content","s":"ntent","c":{},"d":[1,2,3],"e":true},"m":{"w":"com","s":"m","c":{"p":{"w":"compass","s":"pass","c":{},"d":[3],"e":true}},"d":[3],"e":true}},"d":[],"e":false},"i":{"w":"cis","s":"is","c":{},"d":[3],"e":true}},"d":[],"e":false},"b":{"w":"b","s":"b","c":{"l":{"w":"blo","s":"lo","c":{"c":{"w":"block","s":"ck","c":{},"d":[1,2,3],"e":true},"g":{"w":"blog","s":"g","c":{},"d":[3],"e":true}},"d":[],"e":false},"i":{"w":"bi","s":"i","c":{},"d":[3],"e":true},"u":{"w":"business-analytics","s":"usiness-analytics","c":{},"d":[3],"e":true}},"d":[],"e":false},"-":{"w":"-","s":"-","c":{},"d":[1,2],"e":true},"g":{"w":"g","s":"g","c":{"r":{"w":"graph","s":"raph","c":{},"d":[1],"e":true},"l":{"w":"glossary","s":"lossary","c":{},"d":[3],"e":true}},"d":[],"e":false},"v":{"w":"view","s":"view","c":{},"d":[1],"e":true},"p":{"w":"p","s":"p","c":{"a":{"w":"pasted","s":"asted","c":{},"d":[2],"e":true},"n":{"w":"png","s":"ng","c":{},"d":[2],"e":true},"r":{"w":"pr","s":"r","c":{"a":{"w":"practicum","s":"acticum","c":{},"d":[3],"e":true},"o":{"w":"pro","s":"o","c":{},"d":[3],"e":true}},"d":[],"e":false},"o":{"w":"power","s":"ower","c":{},"d":[3],"e":true}},"d":[],"e":false},"i":{"w":"i","s":"i","c":{"m":{"w":"image","s":"mage","c":{},"d":[2],"e":true},"n":{"w":"in","s":"n","c":{"s":{"w":"instrumenty-analitiki","s":"strumenty-analitiki","c":{},"d":[3],"e":true},"f":{"w":"inform","s":"form","c":{},"d":[3],"e":true}},"d":[],"e":false}},"d":[],"e":false},"e":{"w":"excel","s":"excel","c":{},"d":[2],"e":true},"a":{"w":"a","s":"a","c":{"1":{"w":"a1","s":"1","c":{},"d":[2],"e":true},"r":{"w":"articles","s":"rticles","c":{},"d":[3],"e":true}},"d":[],"e":false},"h":{"w":"h","s":"h","c":{"t":{"w":"https","s":"ttps","c":{},"d":[3],"e":true},"a":{"w":"habr","s":"abr","c":{},"d":[3],"e":true}},"d":[],"e":false},"y":{"w":"yandex","s":"yandex","c":{},"d":[3],"e":true},"r":{"w":"r","s":"r","c":{"u":{"w":"ru","s":"u","c":{},"d":[3],"e":true},"b":{"w":"rb","s":"b","c":{},"d":[3],"e":true}},"d":[],"e":false},"f":{"w":"f","s":"f","c":{"i":{"w":"fin","s":"in","c":{"a":{"w":"finalytics","s":"alytics","c":{},"d":[3],"e":true},"-":{"w":"fin-ctrl","s":"-ctrl","c":{},"d":[3],"e":true}},"d":[],"e":false},"a":{"w":"fa","s":"a","c":{"c":{"w":"factorniy-analiz-chto-eto-i-kak-ego-provodit","s":"ctorniy-analiz-chto-eto-i-kak-ego-provodit","c":{},"d":[3],"e":true},"k":{"w":"faktorn","s":"ktorn","c":{"i":{"w":"faktorniy-analiz","s":"iy-analiz","c":{},"d":[3],"e":true},"y":{"w":"faktornyj-analiz","s":"yj-analiz","c":{},"d":[3],"e":true}},"d":[],"e":false}},"d":[],"e":false}},"d":[],"e":false},"w":{"w":"w","s":"w","c":{"a":{"w":"waterfallyears","s":"aterfallyears","c":{},"d":[3],"e":true},"w":{"w":"www","s":"ww","c":{},"d":[3],"e":true},"h":{"w":"what-is-business-analytics","s":"hat-is-business-analytics","c":{},"d":[3],"e":true}},"d":[],"e":false},"k":{"w":"kontur","s":"kontur","c":{},"d":[3],"e":true},"s":{"w":"s","s":"s","c":{"p":{"w":"spravka-compass","s":"pravka-compass","c":{},"d":[3],"e":true},"t":{"w":"story","s":"tory","c":{},"d":[3],"e":true}},"d":[],"e":false}},"d":[],"e":false},"isArray":false},"embeddingModel":{"type":"Radix","node":{"w":"","s":"","c":{"b":{"w":"bge-m3","s":"bge-m3","c":{},"d":[1,2,3],"e":true},"l":{"w":"latest","s":"latest","c":{},"d":[1,2,3],"e":true}},"d":[],"e":false},"isArray":false},"created_at":{"type":"AVL","node":{"root":{"k":1742221949649,"v":[1],"l":{"k":0,"v":[],"l":null,"r":null,"h":0},"r":{"k":1742221949655,"v":[2],"l":null,"r":{"k":1742221949656,"v":[3],"l":null,"r":null,"h":0},"h":1},"h":2}},"isArray":false},"ctime":{"type":"AVL","node":{"root":{"k":1742217511587,"v":[2,3],"l":{"k":0,"v":[],"l":null,"r":null,"h":0},"r":{"k":1742217511592,"v":[1],"l":null,"r":null,"h":0},"h":1}},"isArray":false},"mtime":{"type":"AVL","node":{"root":{"k":1742217511748,"v":[2,3],"l":{"k":0,"v":[],"l":null,"r":null,"h":0},"r":{"k":1742217511752,"v":[1],"l":null,"r":null,"h":0},"h":1}},"isArray":false},"tags":{"type":"Radix","node":{"w":"","s":"","c":{},"d":[],"e":false},"isArray":true},"extension":{"type":"Radix","node":{"w":"","s":"","c":{"m":{"w":"md","s":"md","c":{},"d":[1,2,3],"e":true}},"d":[],"e":false},"isArray":false}},"vectorIndexes":{"embedding":{"size":1024,"vectors":{"b592a2d39b1e3a37d20f8163273b46be":[1.000000140630828,[0.019934600219130516,0.010596671141684055,-0.024520257487893105,0.016694199293851852,0.03541751205921173,-0.0536138191819191,0.047583889216184616,0.07183147221803665,-0.003872758010402322,-0.028076495975255966,-0.008478974923491478,0.02063082717359066,-0.02458229288458824,0.01539417915046215,-0.018882837146520615,-0.01918928697705269,-0.030143890529870987,0.021278617903590202,0.024497410282492638,0.012397462502121925,-0.037167180329561234,-0.028227899223566055,0.033158913254737854,-0.006792725529521704,-0.023146146908402443,0.061213016510009766,-0.0026437004562467337,-0.014644124545156956,-0.027468353509902954,0.025511687621474266,0.04935993254184723,-0.02899494208395481,0.03704448416829109,-0.0025328295305371284,0.008545252494513988,-0.048321764916181564,-0.03579561039805412,0.006338696926832199,-0.09878787398338318,-0.029916103929281235,0.013266266323626041,-0.0021534182596951723,-0.06701721996068954,0.0014573135413229465,0.0022121481597423553,0.00727018341422081,-0.02150367759168148,-0.05599544197320938,-0.010765341110527515,-0.0030105358455330133,-0.012993065640330315,-0.005545659922063351,-0.0004183304263278842,-0.04164841026067734,0.0043668304570019245,0.02859986387193203,-0.010409759357571602,-0.019384147599339485,-0.00023424050596076995,-0.030451370403170586,-0.015618360601365566,0.037535037845373154,-0.011460366658866405,-0.028046980500221252,-0.027397355064749718,0.021978110074996948,-0.0014977270038798451,0.008224092423915863,0.030183935537934303,-0.026513464748859406,0.0024451715871691704,-0.005867831874638796,-0.04037728160619736,-0.055969614535570145,0.0023722045589238405,-0.024131672456860542,-0.002589251846075058,0.010571214370429516,-0.0012142520863562822,-0.03655746206641197,0.10101734101772308,-0.0068123359233140945,0.024893902242183685,0.00005260748730506748,-0.03375013545155525,-0.006077002268284559,-0.007059316150844097,0.06200425326824188,0.013406853191554546,0.03372836858034134,-0.03734290599822998,0.03823621943593025,0.00894941296428442,-0.02470920979976654,-0.016181448474526405,0.0008002247777767479,0.04389052093029022,-0.02987867407500744,-0.019543809816241264,-0.006354682147502899,-0.05487865209579468,0.024449186399579048,0.02278507873415947,0.0627489686012268,0.005358692724257708,-0.002814698964357376,-0.015592631883919239,0.016173526644706726,-0.04630301520228386,0.0012161640916019678,-0.027855172753334045,-0.007478123530745506,-0.02555430307984352,-0.013653228990733624,0.022349407896399498,-0.007149331737309694,-0.013035145588219166,-0.02069084718823433,0.011410081759095192,0.008821940049529076,0.009787461720407009,0.04995567351579666,0.010291068814694881,-0.00628511980175972,0.02239803969860077,0.016925279051065445,0.019656924530863762,0.037913355976343155,-0.043814703822135925,0.01318314578384161,0.014678509905934334,0.0452842190861702,0.019157052040100098,-0.0011946135200560093,-0.03570323809981346,0.005119774956256151,0.04756344482302666,0.03258892521262169,0.01836518384516239,-0.006682680454105139,-0.016709523275494576,0.024783136323094368,-0.02035766839981079,-0.025691352784633636,0.051733989268541336,-0.025565875694155693,0.015223734080791473,0.011604824103415012,0.0012997137382626534,0.042465388774871826,-0.03400726616382599,-0.019076479598879814,-0.004594698548316956,-0.01365107111632824,0.04019450768828392,-0.0030761666130274534,0.038552165031433105,-0.0044455877505242825,0.018188705667853355,-0.026165522634983063,0.01438586600124836,-0.009788322262465954,0.03593510016798973,0.027930952608585358,0.019582031294703484,0.010912034660577774,0.006031892262399197,0.012420372106134892,-0.0010207807645201683,-0.013307181186974049,0.01775278151035309,-0.05357835441827774,0.05249243229627609,0.019398707896471024,-0.0013213002821430564,0.058873265981674194,0.028384283185005188,0.039762161672115326,0.02671181410551071,-0.05027451738715172,-0.006555526051670313,0.01088237389922142,0.023195816203951836,-0.025883322581648827,0.015093278139829636,-0.007549913600087166,-0.009916847571730614,0.010985412634909153,0.004346365109086037,0.0749409943819046,-0.024727623909711838,-0.02690177410840988,0.024245938286185265,0.037341512739658356,0.004260850604623556,-0.0054006860591471195,-0.011829866096377373,0.012583112344145775,0.035792239010334015,-0.034738488495349884,0.0051997010596096516,0.011505208909511566,-0.04495770111680031,-0.002230509417131543,0.012376812286674976,-0.0021378579549491405,-0.009967737831175327,-0.0537475161254406,0.036103345453739166,0.02430468238890171,0.050691716372966766,0.02018839493393898,-0.014069251716136932,-0.00892769917845726,-0.01636936515569687,-0.01917843334376812,-0.01724989339709282,-0.007693513296544552,0.016051778569817543,0.018257832154631615,-0.008465398102998734,-0.03700248897075653,0.0072964937426149845,-0.06276339292526245,-0.00792581308633089,0.02535109594464302,-0.049707092344760895,0.023916393518447876,0.027837716042995453,0.03390508145093918,-0.0661294087767601,0.07685547322034836,-0.02589285559952259,-0.029073741286993027,-0.011098865419626236,0.0067334845662117004,-0.044407349079847336,0.023400912061333656,-0.00623138714581728,-0.0017709077801555395,-0.011270761489868164,-0.05242665112018585,0.00858363602310419,-0.050843436270952225,-0.06634566187858582,0.034813668578863144,-0.0009956724243238568,0.025964602828025818,-0.020819995552301407,-0.007795427460223436,-0.014232833869755268,0.03763645514845848,0.020502321422100067,-0.0202155951410532,0.008480350486934185,-0.020270783454179764,0.019666247069835663,-0.029284846037626266,-0.021326325833797455,0.008260795846581459,0.016306348145008087,-0.024404246360063553,-0.005135803483426571,0.056224312633275986,-0.013830662705004215,-0.00864582322537899,-0.00925334170460701,-0.0351267009973526,0.01328841783106327,0.04241034388542175,0.025995120406150818,-0.012653889134526253,-0.021754402667284012,-0.032379020005464554,-0.026860730722546577,-0.029089655727148056,-0.028847331181168556,-0.025727039203047752,0.05023108422756195,-0.06988990306854248,0.0004467609687708318,-0.041178081184625626,0.013990242965519428,-0.024271197617053986,-0.034514911472797394,0.0490783154964447,-0.00478164991363883,0.029917342588305473,0.007860897108912468,0.0033606691285967827,0.006248092278838158,-0.0019719931297004223,0.07477971911430359,-0.04269455373287201,0.002228222554549575,0.03087715432047844,-0.031228939071297646,-0.1841866374015808,-0.04416830092668533,0.02930050529539585,0.014666830189526081,0.011604712344706059,-0.006449555512517691,0.005157795734703541,0.0033358989749103785,-0.03054795041680336,-0.0426015704870224,-0.04106069728732109,-0.12896831333637238,-0.025868844240903854,-0.002970492234453559,0.0328640453517437,0.01862982101738453,0.008987783454358578,0.006713707931339741,-0.042428355664014816,-0.07384971529245377,0.009867004118859768,0.0007517092162743211,0.057689160108566284,0.04401179403066635,0.019267581403255463,-0.03642899543046951,0.029589049518108368,0.06685218214988708,-0.026198646053671837,0.02204812318086624,-0.013600648380815983,0.021502461284399033,-0.03239356726408005,-0.018415745347738266,0.019627606496214867,-0.0068645779974758625,-0.007231120951473713,-0.02009960636496544,0.03257483243942261,0.011220358312129974,0.04047587141394615,0.04326288029551506,0.0031374534592032433,-0.038097985088825226,0.025913618505001068,-0.02730865776538849,-0.03096133843064308,-0.0070770010352134705,-0.015241162851452827,0.02180018462240696,-0.03990001976490021,-0.00970655307173729,0.006076929159462452,0.022115277126431465,-0.011009826324880123,0.03114175982773304,-0.007088882382959127,0.026776675134897232,0.03834018111228943,0.006566569674760103,-0.035395216196775436,-0.05446922406554222,-0.06579239666461945,-0.009179528802633286,0.03216811269521713,-0.02545172907412052,-0.01102404948323965,-0.028254671022295952,0.025911401957273483,-0.06167473644018173,0.005265067797154188,-0.002675915602594614,-0.049416981637477875,0.027465609833598137,0.004768985323607922,-0.011712095700204372,0.0016856486909091473,-0.03286546841263771,-0.019696172326803207,-0.08264585584402084,0.025935525074601173,0.01601371355354786,0.004197969101369381,0.02143731527030468,-0.00898414570838213,0.03173671290278435,-0.03133807331323624,-0.021868648007512093,-0.012237961404025555,0.3424866795539856,-0.04571413993835449,-0.0015410750638693571,0.0007109190337359905,0.007091178093105555,0.014870787039399147,-0.003686390584334731,0.02045726217329502,-0.00914339255541563,0.01019273605197668,-0.018053485080599785,0.039209794253110886,0.023134324699640274,0.013615277595818043,0.040564779192209244,0.06697997450828552,-0.04507610201835632,0.017147574573755264,-0.018248777836561203,0.008032833226025105,0.007011184003204107,-0.04765293002128601,0.0046638017520308495,0.003216420067474246,-0.06632028520107269,0.029048457741737366,0.01653222367167473,0.01160393375903368,-0.04519987106323242,0.029096202924847603,-0.014508010819554329,0.022954711690545082,-0.00756358215585351,-0.04698255658149719,-0.027407793328166008,0.010750887915492058,-0.058340247720479965,-0.043062109500169754,-0.026790866628289223,-0.00807073526084423,0.02290223352611065,-0.044229649007320404,0.0046880850568413734,-0.0007484472007490695,-0.04342780262231827,-0.033852867782115936,0.020403306931257248,0.027415797114372253,0.03582857921719551,-0.04781965911388397,0.04419802874326706,0.0009194305166602135,-0.03499729558825493,-0.008077173493802547,0.009364349767565727,-0.007664816919714212,-0.042168568819761276,-0.014410503208637238,-0.04187826067209244,0.0004529548459686339,0.03296796232461929,0.0240985956043005,-0.02145656943321228,0.013883400708436966,0.01534245815128088,0.003030426800251007,-0.013698595575988293,-0.024149741977453232,0.013633878901600838,-0.0009625403909012675,0.05283661186695099,0.02192647196352482,0.040792353451251984,-0.012965955771505833,-0.023231325671076775,-0.012285026721656322,0.019998542964458466,0.03278959169983864,0.015298057347536087,-0.014901052229106426,-0.02510540746152401,0.01756240241229534,0.016741914674639702,0.03169931471347809,0.03377590700984001,0.0278153233230114,-0.011184435337781906,0.044476576149463654,-0.011847833171486855,-0.03203504532575607,0.01029426883906126,-0.038671281188726425,-0.03255779296159744,0.010173898190259933,0.01319216750562191,-0.006870319601148367,0.01074229460209608,-0.04926065728068352,-0.025198975577950478,-0.020456474274396896,0.006172069814056158,0.0008963788277469575,0.02595512568950653,0.03818797692656517,-0.003609259147197008,-0.022713584825396538,-0.06903927028179169,-0.02486507035791874,0.0053488509729504585,-0.02035890519618988,-0.02747657336294651,0.023392561823129654,0.014104515314102173,-0.012769922614097595,0.0503513403236866,0.01229671947658062,0.022447101771831512,-0.005436709150671959,-0.010850276798009872,-0.001096617430448532,0.0005814641481265426,-0.019831953570246696,0.03949400410056114,-0.0025198059156537056,-0.01281374879181385,-0.06380102038383484,-0.0056176017969846725,-0.0015249800635501742,-0.01704692840576172,-0.011899340897798538,0.03085392341017723,0.01816633902490139,-0.013063458725810051,0.008337404578924179,-0.0035920976661145687,-0.010203104466199875,0.007558824960142374,-0.03699121251702309,0.017232323065400124,0.03697562590241432,0.007082113530486822,-0.0291315745562315,-0.003009894397109747,0.018055260181427002,-0.025434810668230057,0.007542229723185301,0.009822104126214981,-0.0318191833794117,-0.025815151631832123,-0.005114659667015076,-0.002383780898526311,-0.011913159862160683,0.02410355769097805,-0.007779793348163366,-0.008968316949903965,0.0436503030359745,-0.0013563649263232946,0.01806756667792797,-0.03638801723718643,-0.036091163754463196,-0.02654069848358631,0.023088699206709862,0.0098695894703269,0.057081643491983414,-0.0075148013420403,0.0007737430860288441,0.007749909069389105,0.03677048906683922,-0.023592792451381683,-0.0009627264807932079,0.014418276026844978,-0.06749670207500458,-0.009423227049410343,-0.01014956459403038,0.012928803451359272,0.004909952636808157,-0.009419893845915794,0.022590136155486107,0.00959060713648796,0.0050506298430264,0.027048982679843903,0.012702072970569134,-0.03894641622900963,0.0315215103328228,-0.04211747646331787,-0.010267103090882301,-0.02877027541399002,0.010835984721779823,0.034516289830207825,-0.033298738300800323,0.017734520137310028,0.06821884959936142,0.003607827238738537,-0.005601252429187298,0.014214782975614071,-0.02039184607565403,0.0050260573625564575,-0.0011844293912872672,-0.004547450691461563,-0.0013796548591926694,0.026694929227232933,0.02888506092131138,0.020768381655216217,0.04783880338072777,0.03432906046509743,-0.008722087368369102,0.01986226998269558,0.047975074499845505,-0.0035842217039316893,-0.03919640928506851,0.01976853795349598,-0.014453786425292492,0.013591897673904896,-0.01800866425037384,-0.025999970734119415,-0.02582566812634468,0.03424070030450821,0.02837950550019741,0.019129149615764618,-0.025054113939404488,-0.02242978848516941,-0.04039011150598526,-0.006671764422208071,-0.02305569313466549,0.0020641337614506483,0.00945016834884882,0.012050634250044823,0.02040080726146698,-0.05714438110589981,0.003240335499867797,-0.022345760837197304,-0.016021760180592537,0.011754967272281647,-0.031028540804982185,0.0020046408753842115,-0.037136878818273544,0.02367437817156315,0.012356484308838844,0.0120909558609128,0.031492412090301514,-0.02775815688073635,-0.01758362166583538,0.02543766051530838,0.04542970657348633,0.022228384390473366,0.006524660158902407,-0.0010949831921607256,0.032754406332969666,-0.03577224537730217,-0.020271025598049164,0.01954944245517254,-0.010373266413807869,-0.08516458421945572,-0.035873252898454666,0.021212201565504074,0.06409595161676407,-0.007206236012279987,-0.01818779669702053,-0.02113167569041252,0.008156233467161655,0.015144222415983677,0.017078081145882607,0.003620679257437587,-0.010946209542453289,0.010590941645205021,0.009837603196501732,-0.04076757654547691,-0.05150280520319939,-0.01780041866004467,-0.03321516513824463,-0.014269275590777397,-0.0250970758497715,-0.038887869566679,-0.016995705664157867,0.012338000349700451,-0.04743526875972748,0.02769969217479229,-0.009048624895513058,-0.005488425958901644,0.0034293164499104023,-0.07764704525470734,-0.010005614720284939,0.011799327097833157,-0.00009859206329565495,-0.016995327547192574,-0.032133810222148895,-0.004458638373762369,0.025435633957386017,-0.027165157720446587,-0.018817881122231483,0.021500367671251297,0.009694482199847698,-0.03345268964767456,-0.019335009157657623,0.018765386193990707,0.03824496269226074,-0.05066562816500664,0.04926129803061485,0.02723289281129837,-0.02145613729953766,0.023666230961680412,0.011066332459449768,-0.009106135927140713,-0.01794692687690258,0.022628823295235634,-0.0025740419514477253,0.009190445765852928,0.01853678934276104,-0.014155097305774689,0.002088746288791299,-0.018938874825835228,-0.04327472671866417,-0.030471796169877052,-0.008882489986717701,-0.011535977013409138,-0.018279414623975754,-0.018213778734207153,0.005224059801548719,0.027072159573435783,-0.014708653092384338,-0.015088655985891819,0.004973170347511768,-0.029726719483733177,-0.0042629241943359375,-0.03628825768828392,-0.021200207993388176,-0.004575697705149651,-0.004541038069874048,-0.013224742375314236,-0.01194028276950121,-0.038857173174619675,0.011350777931511402,0.030955815687775612,0.018481507897377014,-0.01560763269662857,-0.015901200473308563,0.08092419058084488,-0.0012456491822376847,0.003796773264184594,0.047520991414785385,0.010420656763017178,0.008496986702084541,0.021356552839279175,0.004409949295222759,0.03716371953487396,0.01584814488887787,0.0016042948700487614,0.0018303061369806528,-0.023992648348212242,-0.016804760321974754,-0.011515018530189991,0.04183931648731232,-0.008580910973250866,0.014691894873976707,-0.001206715707667172,-0.03438083082437515,-0.004796458873897791,0.026558512821793556,0.04973120242357254,-0.016555005684494972,-0.00477624824270606,0.06307132542133331,0.04315940663218498,0.0072363573126494884,-0.0010343154426664114,-0.01068582572042942,-0.005409009288996458,0.002010549185797572,-0.013723096810281277,-0.004397964105010033,0.009509174153208733,0.03470531105995178,-0.010052955709397793,-0.02739274874329567,-0.039500728249549866,-0.016597477719187737,0.0357234887778759,-0.007749093696475029,0.009788984432816505,-0.027035098522901535,-0.02202293649315834,0.008724628016352654,-0.013472563587129116,-0.04622539505362511,0.023474738001823425,-0.011760790832340717,-0.017129505053162575,0.015215517953038216,-0.028052382171154022,0.040843717753887177,-0.012886055745184422,0.03777441009879112,0.018705222755670547,-0.00424016872420907,-0.12538594007492065,0.03888363391160965,-0.04049157723784447,-0.015837501734495163,0.03160887211561203,-0.016529303044080734,-0.0004863988724537194,-0.050464656203985214,-0.01767640747129917,-0.06187760457396507,0.056010425090789795,-0.00298445881344378,0.021294787526130676,-0.037379056215286255,0.0007583410479128361,-0.008311315439641476,-0.02643563784658909,0.006662540137767792,0.0022915152367204428,0.051305610686540604,-0.013397418893873692,-0.045392438769340515,-0.05501898378133774,-0.052128568291664124,0.018109217286109924,0.014515931718051434,-0.033259548246860504,0.02716228738427162,-0.001966213108971715,0.021593252196907997,-0.0063788434490561485,-0.04053466022014618,-0.02841765806078911,0.06221737340092659,-0.02943398989737034,0.043672483414411545,-0.0069268024526536465,-0.02225371077656746,0.003195337485522032,0.052609220147132874,0.01734641008079052,-0.011694403365254402,-0.03492050617933273,0.009761764667928219,0.008274591527879238,0.004208691883832216,-0.0033837053924798965,-0.008862365037202835,-0.00896985549479723,0.01524882111698389,-0.05812453478574753,-0.03279339522123337,0.023949936032295227,0.014042573049664497,0.02167460136115551,0.03868760168552399,-0.004400680772960186,0.004953719675540924,-0.016719575971364975,0.06320983171463013,-0.011713923886418343,0.04362621530890465,-0.02166803739964962,-0.020809972658753395,-0.013386237435042858,-0.003063931129872799,0.015902364626526833,-0.01425094809383154,-0.0029835887253284454,-0.026419727131724358,0.0012405215529724956,-0.038352012634277344,-0.007740470580756664,0.0031188668217509985,0.02832455188035965,0.006306655239313841,0.06334774196147919,-0.017780952155590057,0.042918965220451355,0.020488983020186424,-0.011424369178712368,0.006971415132284164,-0.025783512741327286,0.061920396983623505,0.06146581098437309,-0.020635513588786125,-0.008767947554588318,-0.013411538675427437,-0.007536857854574919,-0.021874066442251205,0.0034460797905921936,0.03294176608324051,0.006620028987526894,0.03307932987809181,-0.03676369786262512,0.01201715413480997,0.021799635142087936,-0.0050136735662817955,0.029799416661262512,-0.006577267311513424,0.004680859390646219,0.04321850463747978,-0.029435787349939346,0.01878901943564415,0.0006835267413407564,0.0006781388656236231,-0.061764758080244064,0.011374237947165966,-0.028584212064743042,0.008189789019525051,0.018761683255434036,-0.02175752818584442,-0.04959699884057045,0.00257446663454175,-0.029381413012742996,-0.024081017822027206,-0.008298186585307121,0.016123058274388313,0.0010116316843777895,-0.00874257367104292,0.03709414601325989,0.033510442823171616,-0.0068045733496546745,-0.06905674189329147,0.02795233391225338,-0.0066326395608484745,-0.018151594325900078,0.010325889103114605,0.0382092148065567,-0.02624082937836647,0.0509725920855999,-0.025592274963855743,-0.0038576002698391676,-0.013779088854789734,-0.0016036205925047398,-0.004976190626621246,-0.002389189088717103,0.08478017896413803,-0.01324794627726078,-0.04460263252258301,-0.009807078167796135,-0.005890258122235537,0.0056651560589671135,-0.007788796443492174,-0.02829752489924431,-0.047653064131736755,0.01793089136481285,0.0017454730113968253,-0.04005741328001022,-0.02757379598915577,0.0008348618284799159,0.014848296530544758,0.025581447407603264,0.020177416503429413,-0.01785052753984928,0.0072955479845404625,-0.0019038611790165305,-0.050382863730192184,-0.02344299666583538,0.07669512182474136,0.022795680910348892,-0.012275352142751217,0.0027299323119223118,-0.028887230902910233,-0.03430178388953209,-0.0023281145840883255,-0.004125005099922419,-0.019323265179991722,0.03605306148529053,-0.0023787629324942827,0.007333887275308371,0.04552784562110901,0.001383975613862276,0.06256943941116333,0.005932859610766172,-0.059327129274606705,0.004054446704685688,0.05374223738908768,0.04347337409853935,0.011852008290588856,-0.02575070410966873,-0.055909961462020874,0.030822770670056343,-0.0272475928068161,0.03855567425489426,-0.007271622307598591,-0.000495348300319165,0.01699395477771759,-0.011587274260818958,0.014258714392781258,-0.016610370948910713,0.019601766020059586,0.020536154508590698,0.041022542864084244,0.017379146069288254,-0.025392059236764908,0.01717114821076393,-0.012552348896861076,-0.019495556131005287,0.006221258547157049,-0.06012824922800064,-0.02330695651471615,-0.006102402228862047,0.02015588991343975,-0.004783093463629484,0.02963704988360405,-0.03549451753497124,-0.008786705322563648,0.0033183700870722532,0.025339275598526,-0.016944628208875656,0.029986683279275894,-0.001212671515531838,0.07461804151535034,0.02272379770874977,0.001006748410873115,0.009393882006406784,0.0015289454022422433,0.06027806177735329,-0.007627927698194981,-0.00538611551746726,0.05045709386467934,0.004923525266349316,-0.02937605418264866,-0.0008673898410052061,-0.016202105209231377,0.030407190322875977,0.02188892476260662,-0.0022415874991565943,-0.023099074140191078,0.005633177701383829,0.01795523799955845,0.017537856474518776,0.021473493427038193,0.03449977934360504,0.02584291249513626,-0.01413535326719284,0.050431396812200546,0.0004202973213978112,-0.003141307970508933,-0.031584274023771286,-0.03483601659536362,0.0003748820163309574,0.011946937069296837]],"2b666891e3e6ccafb49cc7fcb282d137":[1.000000363501987,[0.006164373364299536,-0.0030944396276026964,-0.06563720107078552,0.032398514449596405,0.047910720109939575,-0.018864400684833527,0.05986153334379196,0.06930993497371674,0.002180088311433792,-0.0021224243100732565,-0.01205745991319418,0.01740320585668087,-0.019940169528126717,0.029710574075579643,0.0009543263004161417,-0.017690058797597885,-0.007467979099601507,0.007177756167948246,0.013555126264691353,0.0033980084117501974,-0.051502760499715805,0.02824554592370987,0.019744284451007843,-0.016016054898500443,-0.0245496965944767,0.04509440436959267,-0.004334647208452225,-0.014143063686788082,-0.003701283596456051,-0.0010099097853526473,0.02188294380903244,-0.024609806016087532,0.012485211715102196,-0.022721068933606148,0.00588727742433548,-0.04020247980952263,-0.03671607747673988,-0.01617773249745369,-0.08864577859640121,-0.01580389030277729,0.005582744721323252,-0.019708063453435898,-0.0281128641217947,0.00805585365742445,0.029884038493037224,0.03539658710360527,-0.03213850036263466,-0.07434304803609848,-0.02258577197790146,-0.03181299567222595,0.004932394251227379,-0.018326984718441963,0.015590260736644268,-0.03941415250301361,-0.0150081692263484,0.008459151722490788,-0.007084420416504145,0.014791336841881275,0.009893105365335941,-0.040386881679296494,-0.005339250899851322,0.013381807133555412,-0.02324223332107067,-0.00679035997018218,-0.0157578494399786,0.003421000437811017,-0.016439151018857956,0.03135180473327637,0.019575210288167,-0.02246047370135784,-0.011673634871840477,-0.00924176350235939,-0.032461125403642654,-0.06210792809724808,-0.005130097270011902,-0.006830350961536169,-0.010525352321565151,-0.016699040308594704,0.017033832147717476,0.0025362807791680098,0.08545626699924469,-0.038537342101335526,0.015785731375217438,0.00043571769492700696,-0.05656404420733452,-0.04486653208732605,0.0063675688579678535,0.03390141576528549,0.020306188613176346,0.02425738424062729,-0.008126388303935528,0.048335570842027664,-0.003942370414733887,-0.03141418471932411,0.03603772819042206,-0.01811976358294487,0.02485453523695469,-0.014744744636118412,0.00045635353308171034,-0.02336110733449459,-0.020979376509785652,0.04896696284413338,0.02220151573419571,0.02229652926325798,0.030279196798801422,-0.021529890596866608,-0.02748618833720684,0.0017852084711194038,-0.0017313234275206923,-0.005013985093683004,-0.030669912695884705,-0.03039168380200863,-0.018548764288425446,0.00006100054451962933,0.04332922026515007,-0.013333079405128956,-0.010904337279498577,0.0221675094217062,0.03934246301651001,0.005078790243715048,0.008383089676499367,0.06692356616258621,0.013761312700808048,-0.0008996500982902944,0.009180590510368347,0.0005517937242984772,-0.01153590064495802,0.02817610278725624,-0.043979745358228683,-0.001365718781016767,-0.005769897717982531,0.05016840994358063,0.019859230145812035,0.014102251268923283,-0.028937820345163345,-0.012826724909245968,0.03845725953578949,0.04138399660587311,0.017805110663175583,-0.0264668557792902,-0.0036405448336154222,0.025087377056479454,-0.019726140424609184,0.01732422038912773,0.02695225179195404,-0.0534677691757679,0.014608334749937057,0.018896905705332756,-0.006609413307160139,0.016380971297621727,-0.020307401195168495,-0.029090460389852524,0.0038566028233617544,-0.012326685711741447,0.06128459796309471,0.01594499871134758,0.01677343063056469,-0.021470244973897934,0.008874923922121525,-0.0069906748831272125,0.041865747421979904,-0.04314836487174034,0.06829150021076202,0.04573563113808632,0.0070393881760537624,-0.035022519528865814,0.015066370368003845,0.05678752437233925,-0.013833727687597275,-0.07826372981071472,-0.015201262198388577,-0.07310730963945389,0.04215933009982109,0.012625677511096,0.008382538333535194,0.057525452226400375,0.07478851079940796,0.03755290433764458,0.0402650460600853,-0.0213859174400568,0.018742650747299194,0.03398692607879639,0.02936078980565071,-0.0581965446472168,-0.010515350848436356,0.004005244001746178,-0.010868449695408344,0.023804105818271637,0.03157169744372368,0.033399470150470734,-0.03229859098792076,-0.024508614093065262,0.0266320388764143,0.05731919780373573,0.005330599378794432,-0.03948713093996048,-0.016858020797371864,0.03281909227371216,0.06219817325472832,-0.01753031276166439,-0.006589137017726898,0.029904233291745186,-0.04426572471857071,0.024613596498966217,-0.003626306541264057,0.026104891672730446,-0.0293897595256567,-0.04834778979420662,0.03917093575000763,-0.0008344434900209308,0.062438614666461945,0.021568916738033295,-0.0453464537858963,0.007722742389887571,0.013302447274327278,-0.001063755014911294,0.010624760761857033,0.017045311629772186,-0.006261391565203667,0.02224227786064148,0.017181675881147385,-0.035556718707084656,-0.011373497545719147,-0.041499894112348557,0.018969764932990074,0.03424527868628502,-0.03634937107563019,0.009215939790010452,0.03276439011096954,0.012762611731886864,-0.05189202353358269,0.06491586565971375,0.004137652926146984,-0.030511127784848213,0.004269094672054052,-0.003289927029982209,-0.03726192191243172,-0.012742849998176098,0.021487746387720108,0.005619860254228115,-0.016003625467419624,-0.07383524626493454,0.019394351169466972,-0.040370162576436996,-0.03746160864830017,0.02849910967051983,-0.013327289372682571,0.009012559428811073,-0.016113191843032837,-0.007002116646617651,0.00013239432882983238,0.022384190931916237,0.020370565354824066,-0.005754511803388596,0.0020116129890084267,-0.05832236632704735,0.026748286560177803,-0.023703133687376976,-0.04558734968304634,-0.012565701268613338,-0.002613331191241741,-0.007065479177981615,-0.028465844690799713,0.05877947062253952,0.009266708977520466,-0.023409293964505196,-0.0011643375037238002,-0.008922914043068886,0.00292181596159935,0.04364386200904846,0.0266718789935112,-0.009434479288756847,-0.0160825178027153,-0.004922651220113039,-0.0076643358916044235,0.002952437847852707,0.014133764430880547,-0.02320995181798935,0.054731689393520355,-0.0598132386803627,0.00783332996070385,-0.040970880538225174,0.020981015637516975,-0.05136565864086151,-0.005298145581036806,0.038025062531232834,-0.03892187401652336,0.0025401150342077017,-0.011729247868061066,-0.014680306427180767,-0.00831657089293003,0.0054325987584888935,0.07392220199108124,-0.0554703064262867,0.023923981934785843,0.02008174918591976,-0.014851678162813187,-0.17597173154354095,-0.019124170765280724,-0.009133823215961456,0.02018766663968563,0.004845424555242062,0.007708185818046331,-0.026987941935658455,0.005075146444141865,0.001328970305621624,-0.03741592541337013,-0.05348554253578186,-0.12304283678531647,-0.016872918233275414,0.0015937001444399357,0.057032641023397446,0.04404637590050697,0.012792433612048626,0.002078399294987321,-0.04091045632958412,-0.06302855163812637,0.003726207884028554,0.012481732293963432,0.05869732052087784,0.021505365148186684,0.031114662066102028,0.012267040088772774,0.0046263812109827995,0.015727855265140533,-0.030577365309000015,0.020089777186512947,-0.023794816806912422,-0.004330643452703953,-0.024594616144895554,-0.013820272870361805,0.04110761731863022,0.01958899199962616,0.002956935204565525,-0.0006170364213176072,0.061469241976737976,0.0038393065333366394,0.04597701132297516,0.013423413969576359,0.011417337693274021,-0.037518687546253204,0.0133719053119421,-0.030105846002697945,-0.0034017867874354124,-0.0006953137926757336,-0.007085634861141443,0.00553450221195817,-0.037513453513383865,0.0029404708184301853,0.036416102200746536,0.016220133751630783,-0.025308018550276756,0.016038723289966583,-0.011938697658479214,0.05008842423558235,-0.0017780838534235954,0.019147494807839394,-0.03612108901143074,-0.04315842688083649,-0.05411821976304054,-0.039920058101415634,0.028076568618416786,-0.009282337501645088,0.008987097069621086,-0.029504265636205673,0.05215846747159958,-0.07369035482406616,0.028095223009586334,0.00021105227642692626,-0.032934434711933136,0.006230153609067202,-0.0011984017910435796,-0.0115117896348238,-0.0014644572511315346,-0.028342589735984802,-0.04336249828338623,-0.05721873417496681,0.025773096829652786,-0.0041411560960114,-0.03131189942359924,0.029412562027573586,-0.02461838535964489,-0.005601958837360144,-0.023895306512713432,-0.03340090066194534,0.01610565558075905,0.3196336328983307,-0.015708914026618004,-0.00807047076523304,0.025677843019366264,0.02622475102543831,-0.013545232824981213,-0.008752429857850075,0.017784686759114265,-0.01821090467274189,0.004168527666479349,0.021924374625086784,0.007031736895442009,-0.02032388374209404,0.024813560768961906,0.031730636954307556,0.038270436227321625,-0.04583070054650307,-0.007841351442039013,0.007148247677832842,0.014752143993973732,0.012200595811009407,-0.03359851613640785,-0.02036997303366661,-0.021338803693652153,-0.043702010065317154,0.025184910744428635,0.004919171798974276,-0.001540335244499147,-0.0483911968767643,0.018388036638498306,-0.022711869329214096,0.029492216184735298,0.015789104625582695,-0.04747571796178818,-0.0330757237970829,0.00006735028728144243,-0.040244366973638535,-0.045337267220020294,-0.03434243053197861,-0.022546660155057907,0.016305819153785706,-0.04253305494785309,-0.033902209252119064,0.009850979782640934,-0.0326799675822258,-0.009283401072025299,0.012516375631093979,0.0057360269129276276,0.02304389700293541,-0.03964611887931824,0.031267862766981125,-0.012234590947628021,-0.03065049648284912,-0.0035444870591163635,0.014599991030991077,0.029133442789316177,-0.06110500171780586,0.013663598336279392,-0.017762895673513412,-0.015042182058095932,0.005375148728489876,0.018830129876732826,-0.0006779907271265984,0.025555327534675598,0.0013226105365902185,0.0096521507948637,-0.06537377834320068,-0.03538083657622337,-0.01438109390437603,-0.006428494583815336,0.04428965598344803,0.01899031177163124,0.02263360656797886,0.003909477964043617,-0.022470399737358093,0.013948105275630951,0.029380343854427338,0.02009676955640316,0.019411589950323105,0.0058577097952365875,-0.03236125037074089,-0.00275457464158535,0.021452492102980614,0.016964610666036606,0.004632248543202877,0.0032242487650364637,-0.02765776216983795,0.020056547597050667,-0.012863109819591045,-0.02815805934369564,-0.012422238476574421,-0.016048967838287354,-0.00465788459405303,0.008874570019543171,0.020965497940778732,0.017039593309164047,0.021966997534036636,-0.05725716054439545,0.007149717770516872,-0.011082584969699383,0.029253661632537842,0.004672410897910595,0.04166145995259285,-0.011626836843788624,0.032296836376190186,-0.04488544166088104,-0.06978406757116318,-0.006226836238056421,-0.009604498744010925,0.022674374282360077,-0.03276185318827629,0.0037356738466769457,0.002206842415034771,-0.013961879536509514,0.05018075183033943,0.04888961464166641,0.044288747012615204,0.03566994145512581,0.014620473608374596,0.05101076140999794,-0.023551469668745995,-0.008482994511723518,0.02996828779578209,-0.015586283057928085,-0.03608982637524605,-0.0631939023733139,0.011638624593615532,-0.023243920877575874,-0.016618844121694565,0.018718505278229713,0.003108798759058118,0.02241540141403675,0.00005000876626581885,0.00520732905715704,-0.015443203039467335,-0.021839892491698265,-0.0016227327287197113,-0.023279594257473946,0.01655733212828636,0.03751898184418678,-0.03393462672829628,0.008275303058326244,-0.005883384495973587,0.019401557743549347,-0.013474113307893276,0.03665886074304581,-0.006193363107740879,-0.018937192857265472,-0.02034631185233593,0.0067923786118626595,-0.0016919063637033105,-0.04386803135275841,0.039149630814790726,-0.04012487083673477,0.021557113155722618,0.0057701230980455875,0.0032001554500311613,-0.03671032562851906,-0.017536582425236702,-0.016911569982767105,-0.0038107531145215034,0.017785867676138878,-0.0011106356978416443,0.076117143034935,-0.007418373133987188,0.02118394710123539,-0.005836499389261007,0.04588275030255318,-0.03251213580369949,0.003211532486602664,-0.009121651761233807,-0.054367054253816605,0.0068601444363594055,-0.009169480763375759,0.01411019079387188,-0.009360317140817642,-0.004209835082292557,0.02983761578798294,0.008212806656956673,-0.017962267622351646,0.019423959776759148,0.02174532413482666,-0.03076411969959736,0.024132339283823967,-0.01955576427280903,-0.011510669253766537,-0.028141293674707413,0.01049736700952053,0.02391132526099682,-0.04273100942373276,0.03241769224405289,0.05916387960314751,-0.03484567254781723,-0.007538957521319389,0.014113831333816051,-0.0019090295536443591,0.031989261507987976,0.0016086036339402199,0.015372293069958687,-0.009530454874038696,0.018535226583480835,0.047556355595588684,0.005914479959756136,0.03827996551990509,0.0027611181139945984,-0.02109203301370144,0.030455373227596283,0.047642406076192856,-0.004527169279754162,-0.045918870717287064,-0.013416200876235962,-0.00823631789535284,0.018180297687649727,-0.021009132266044617,-0.028899481520056725,-0.016125189140439034,0.05814103037118912,0.054032839834690094,0.01378074660897255,0.027889763936400414,-0.03759900480508804,-0.048654720187187195,-0.000271960801910609,-0.023771235719323158,-0.02869592234492302,0.02141905017197132,-0.02915647253394127,-0.003587566316127777,-0.055867038667201996,-0.002420121571049094,-0.01624298095703125,-0.021458111703395844,0.01843080297112465,0.0002813540049828589,-0.014541755430400372,-0.003482062602415681,0.03236277401447296,0.018873929977416992,0.007131162565201521,0.02712789922952652,-0.001892646192573011,-0.017406918108463287,-0.0007633577915839851,0.030919242650270462,0.01167172659188509,-0.0013357589486986399,-0.019781319424510002,0.007414017803966999,-0.040306176990270615,0.011928267776966095,-0.001081871916539967,-0.020107105374336243,-0.045853182673454285,-0.030035613104701042,0.041460949927568436,0.07369881868362427,0.01867830939590931,-0.015638498589396477,-0.04836684465408325,0.007246312219649553,-0.017156166955828667,0.048318590968847275,0.0447908379137516,-0.021235225722193718,-0.02325904369354248,0.010180958546698093,-0.015137452632188797,-0.029840881004929543,-0.0034566738177090883,-0.05744503438472748,-0.018065230920910835,-0.022489236667752266,-0.022803468629717827,-0.02012800984084606,0.03330480307340622,-0.02038493938744068,0.017879707738757133,0.0448092557489872,0.00806393288075924,-0.01783689856529236,-0.06554580479860306,0.006645334884524345,0.00804189033806324,-0.013389017432928085,0.013462670147418976,-0.0038035318721085787,-0.011305179446935654,0.0022835617419332266,-0.026122616603970528,0.0020861828234046698,0.01759731024503708,0.005568694788962603,-0.03356717526912689,0.018090132623910904,0.04134293645620346,0.03499507158994675,-0.01648416556417942,0.07389260083436966,0.04339619725942612,-0.0007830657414160669,0.01781737618148327,0.003386714728549123,-0.010133104398846626,-0.02419232204556465,-0.007140179164707661,0.01767405867576599,0.018494393676519394,0.02012917771935463,0.008498623967170715,-0.026225458830595016,-0.002654353389516473,-0.05537058785557747,-0.03189411386847496,-0.004710217472165823,-0.026602845638990402,-0.005448808427900076,-0.010029740631580353,-0.020641369745135307,0.003269243286922574,0.007134379353374243,0.014484980143606663,-0.016559775918722153,-0.0617244690656662,0.011504096910357475,-0.057647302746772766,-0.029805276542901993,-0.034259311854839325,-0.019566141068935394,-0.027112120762467384,-0.020323721691966057,-0.01860937848687172,0.01668044738471508,0.01499570906162262,-0.010227545164525509,0.005142252892255783,0.014622693881392479,0.04304854944348335,-0.00734140258282423,0.004299291875213385,0.012269570492208004,-0.021684961393475533,0.0191351231187582,0.001563756843097508,0.024449966847896576,0.01760399155318737,0.026905493810772896,0.014565998688340187,-0.02020251750946045,-0.04620533809065819,-0.024585705250501633,-0.007464734371751547,0.019133858382701874,-0.03020765259861946,0.022260522469878197,-0.003496906254440546,-0.016465073451399803,-0.009258465841412544,0.04817373305559158,0.030937284231185913,-0.010784771293401718,-0.021768230944871902,0.037923663854599,0.01769435405731201,-0.004095361102372408,-0.005348856095224619,-0.028503434732556343,-0.01850549876689911,-0.006658555474132299,-0.0002482816926203668,0.0064385756850242615,0.005833446979522705,0.05609768256545067,-0.00851238239556551,-0.06731648743152618,-0.04495604336261749,-0.0338786356151104,0.02607000060379505,0.007753334008157253,0.004081889521330595,-0.05640625208616257,-0.02045437879860401,-0.004767993930727243,-0.018872592598199844,-0.04347003623843193,-0.028173644095659256,-0.014832215383648872,-0.024748405441641808,-0.010869603604078293,-0.0348668247461319,0.032878708094358444,-0.0029735364951193333,0.054318659007549286,0.019922759383916855,0.0024701396469026804,-0.11430693417787552,0.041658345609903336,-0.06790271401405334,-0.03215165063738823,0.014743391424417496,-0.021519267931580544,0.02927117981016636,-0.01604541391134262,-0.02089821547269821,-0.04702381044626236,0.028953425586223602,-0.01984422281384468,-0.006370429880917072,-0.03793718293309212,-0.021814420819282532,0.017468269914388657,-0.01720857433974743,0.02106739766895771,0.014736678451299667,0.04252035915851593,-0.008594860322773457,-0.051340267062187195,-0.030016571283340454,-0.03735388442873955,0.01414882205426693,0.0015667866682633758,-0.042734451591968536,0.01697566546499729,-0.0008358103223145008,-0.021137438714504242,0.025257080793380737,-0.06399759650230408,-0.013219838961958885,0.04146059229969978,0.010525810532271862,0.04224352538585663,-0.03248482570052147,-0.026328466832637787,0.017104335129261017,0.05533577501773834,0.0038079675287008286,-0.021397802978754044,-0.032915402203798294,0.01124618574976921,-0.033549465239048004,0.004262024536728859,0.012579613365232944,-0.030268006026744843,0.014139347709715366,-0.016677487641572952,-0.06732012331485748,-0.01511868555098772,0.012624514289200306,-0.00758765684440732,0.010543893091380596,0.004229658283293247,0.0047644139267504215,0.0001415466977050528,-0.031357817351818085,0.04442188888788223,0.002005469286814332,0.015863865613937378,-0.04004758596420288,-0.008649935014545918,-0.018231119960546494,0.0002457369409967214,0.008146085776388645,-0.023199137300252914,0.011810271069407463,-0.02667754516005516,-0.005011013709008694,-0.04995173588395119,-0.002838081680238247,-0.0007129276054911315,0.005183297675102949,-0.028645634651184082,0.0493435300886631,-0.03625413402915001,0.0530269555747509,0.004412324167788029,-0.00743131572380662,-0.002904212800785899,-0.009202531538903713,0.019135432317852974,0.04676603898406029,-0.0017931563779711723,-0.03067811205983162,0.01374530978500843,-0.026010682806372643,-0.02565440535545349,-0.011297483928501606,0.04077598825097084,0.022648988291621208,0.008050148375332355,-0.0029758571181446314,0.04410306736826897,0.010221600532531738,0.013650945387780666,0.013732614926993847,-0.01699082739651203,-0.0022449048701673746,0.04077749326825142,-0.008318215608596802,0.034323856234550476,0.031689271330833435,0.019111772999167442,-0.047527976334095,0.018013201653957367,-0.005361488088965416,-0.009365339763462543,-0.026542948558926582,-0.02381742186844349,-0.06251366436481476,0.001316873705945909,-0.041411954909563065,-0.03833146020770073,-0.012305159121751785,0.018497496843338013,0.026314446702599525,-0.02511168271303177,0.024084007367491722,-0.010255495086312294,0.008924025110900402,-0.05892065167427063,0.02106075920164585,0.019608670845627785,0.014123912900686264,0.03508385643362999,0.04501722753047943,-0.014698469080030918,0.04060006141662598,-0.009448819793760777,-0.01588274911046028,0.0016104006208479404,0.008545677177608013,0.003813395509496331,-0.02279825694859028,0.07293041795492172,0.0023836218751966953,-0.028348512947559357,-0.015490391291677952,0.021282250061631203,-0.025131575763225555,-0.03395264968276024,-0.08692701160907745,-0.010289439931511879,0.05850796774029732,-0.0014431120362132788,0.04244894161820412,-0.02794390544295311,-0.02883407287299633,0.008566904813051224,0.008279435336589813,0.04139256849884987,-0.0362078882753849,-0.01800917275249958,-0.043949197977781296,-0.026522312313318253,0.011205492541193962,0.09944305568933487,0.007196447812020779,-0.011840646155178547,0.01700306497514248,-0.033651888370513916,-0.03835973143577576,0.009727535769343376,-0.027689265087246895,-0.016102558001875877,0.03621247410774231,0.046021733433008194,0.021879052743315697,0.05587802827358246,-0.001327916281297803,0.04562869295477867,0.016695551574230194,-0.027899514883756638,0.006090295966714621,0.04984124004840851,0.05737360194325447,-0.001786332344636321,-0.00838699284940958,-0.03350985795259476,0.05319158732891083,-0.02034170925617218,0.03606991097331047,-0.005806743633002043,-0.016524646431207657,-0.007718625478446484,-0.006620886269956827,-0.009535466320812702,-0.023676922544836998,0.0006917904247529805,0.04197311773896217,0.03569033369421959,0.008726652711629868,0.009515802375972271,0.0038199422415345907,-0.008015013299882412,0.0077389939688146114,0.002195725915953517,-0.02944783680140972,-0.0001427181123290211,0.005067150108516216,0.03659328073263168,-0.010208064690232277,0.012741447426378727,-0.017092499881982803,-0.01567319594323635,-0.025604132562875748,-0.018847687169909477,-0.019018134102225304,0.03507557138800621,-0.007178057450801134,0.05483834818005562,0.02034972794353962,-0.01305176317691803,0.02613072656095028,0.010339517146348953,0.05295224115252495,0.03253379836678505,0.007767527364194393,0.06111902743577957,-0.010568437166512012,-0.02260517328977585,0.033008724451065063,-0.02443677932024002,0.010699454694986343,0.003908684942871332,-0.029399001970887184,-0.012335148639976978,-0.020466091111302376,0.020132921636104584,0.0051541742868721485,0.023102769628167152,0.008309225551784039,0.029164746403694153,0.007833864539861679,0.04910175874829292,0.0002889469906222075,0.004724410828202963,-0.031385213136672974,-0.016164960339665413,0.04529877007007599,0.03653562068939209]],"97daa85f47b9506c6647ec254d96d616":[1.0000002722576153,[-0.046263907104730606,-0.00248016812838614,-0.06401970237493515,0.03973161801695824,0.011575940996408463,-0.0588398352265358,0.0008368483977392316,0.028393317013978958,0.04341494292020798,0.030013320967555046,0.0005068726604804397,-0.010180222801864147,-0.011719235219061375,0.02284993790090084,0.010551514104008675,-0.004939143545925617,0.033979568630456924,-0.016839822754263878,0.007900694385170937,0.00596065167337656,-0.001972552388906479,0.04389074817299843,0.0486307218670845,0.049852389842271805,-0.02941332943737507,0.017066452652215958,-0.005455642472952604,-0.040682315826416016,0.02491149492561817,0.009928794577717781,0.05695118010044098,-0.03265479952096939,0.016531910747289658,-0.03451583534479141,-0.012694351375102997,-0.015217599458992481,-0.007931486703455448,-0.051708102226257324,-0.05503285676240921,0.025198200717568398,-0.011803959496319294,0.01118064671754837,-0.008176716975867748,-0.039565637707710266,0.02805563621222973,-0.05850164219737053,-0.003650772850960493,-0.02301434613764286,-0.03729593753814697,0.008651277050375938,-0.017862048000097275,-0.0256812646985054,0.025349821895360947,-0.02708539180457592,0.03165184333920479,-0.0010359837906435132,-0.03900787979364395,-0.01670546643435955,-0.07278107106685638,0.027224013581871986,-0.048239633440971375,-0.009747324511408806,-0.022881506010890007,-0.024442274123430252,0.007418434601277113,0.042678918689489365,0.025365004315972328,0.025305749848484993,-0.013003974221646786,0.003942647483199835,0.025254370644688606,0.04399551451206207,-0.0051995255053043365,-0.011091751977801323,-0.05575069040060043,-0.01231877040117979,0.008801956661045551,-0.027265075594186783,0.008496228605508804,0.016186263412237167,-0.03885301575064659,-0.011039257980883121,0.009832227602601051,-0.034803032875061035,-0.038584209978580475,-0.0013444707728922367,0.023861989378929138,0.0863369032740593,0.012479839846491814,0.021479396149516106,-0.02647220529615879,0.02131892926990986,0.02562442608177662,-0.03327307850122452,-0.018420694395899773,-0.03428628668189049,0.010507572442293167,0.0018218562472611666,0.007951521314680576,0.039920441806316376,0.041452061384916306,0.03554554656147957,0.00354885240085423,0.01610187254846096,0.00510487612336874,-0.026495913043618202,-0.03635779023170471,-0.019460849463939667,-0.0178039763122797,-0.014709834940731525,-0.022541269659996033,0.01283688098192215,0.005073363892734051,0.0010217659873887897,-0.0019853701815009117,-0.009413659572601318,0.010434946045279503,-0.017140135169029236,-0.021134136244654655,-0.019212111830711365,0.03454308584332466,0.0540623664855957,0.06323234736919403,-0.003178034909069538,0.004070965573191643,0.004399861209094524,0.04129903391003609,-0.011075214482843876,0.013652265071868896,0.007511272560805082,0.016540078446269035,0.028111569583415985,-0.001953909872099757,0.004113247152417898,-0.023886334151029587,0.028367843478918076,0.024617815390229225,0.034114763140678406,-0.009268888272345066,-0.018626084551215172,0.03452007845044136,0.0011348549742251635,0.0012458591954782605,-0.026732100173830986,0.04365117847919464,-0.03264576569199562,0.03201785311102867,0.037070900201797485,-0.002888154936954379,-0.047469500452280045,0.0062335217371582985,-0.009772714227437973,0.015725649893283844,0.010403499938547611,0.003683698596432805,-0.05572546273469925,0.004969593603163958,0.010220196098089218,0.03931017592549324,-0.005219981074333191,-0.01820332184433937,0.015027978457510471,-0.013077032752335072,0.023631174117326736,0.031153135001659393,0.05567365884780884,0.045249197632074356,-0.042232614010572433,-0.021282408386468887,-0.010340770706534386,0.015343100763857365,-0.051155395805835724,-0.004229250829666853,-0.012754231691360474,0.02748890034854412,0.015345623716711998,0.04769308865070343,0.008676251396536827,-0.012505664490163326,-0.02136160060763359,-0.004190363455563784,0.02402655780315399,-0.046516675502061844,0.02539956569671631,-0.024089006707072258,0.002659029792994261,-0.01740812323987484,0.024450695142149925,0.0008754750597290695,0.02772493287920952,0.011231395415961742,-0.04361732304096222,0.0050553129985928535,0.02670690044760704,0.016762318089604378,0.001417889492586255,0.018648218363523483,0.024842992424964905,0.023711983114480972,-0.016499914228916168,0.01759289763867855,0.032433003187179565,0.029763437807559967,-0.031010907143354416,-0.0191205944865942,0.009073060937225819,0.0032842850778251886,-0.04381933435797691,0.017420368269085884,-0.0012326979776844382,0.057960595935583115,0.006872937548905611,-0.02239786833524704,0.029033726081252098,-0.07036428153514862,-0.008861443027853966,0.010476242750883102,-0.007050700485706329,-0.0007176478975452483,-0.009622380137443542,0.021646773442626,0.01790161430835724,0.0032879430800676346,0.026755617931485176,-0.011864525265991688,-0.014937948435544968,-0.01679336279630661,0.0317545086145401,0.039293061941862106,-0.0392671562731266,0.01866731606423855,0.008616270497441292,0.020041419193148613,-0.0002669429231900722,0.02798905037343502,0.021549366414546967,-0.031845398247241974,0.010970529168844223,0.014545483514666557,0.002280860673636198,-0.01393839344382286,-0.06389323621988297,-0.05144433304667473,-0.04041147977113724,-0.04260444641113281,-0.019237874075770378,-0.005518906284123659,0.003881226060912013,0.012071785517036915,0.01845303177833557,-0.006745480000972748,0.013217196799814701,-0.0046838391572237015,-0.038078099489212036,0.04131753370165825,0.023528477177023888,0.020552439615130424,0.01603810489177704,-0.019766682758927345,-0.019906852394342422,-0.0004088222631253302,0.030698979273438454,0.010593998245894909,0.009651278145611286,0.003040175186470151,-0.016307471320033073,-0.0068620420061051846,-0.06997714191675186,0.021155530586838722,0.017069140449166298,-0.011037617921829224,-0.04041902348399162,0.013549868948757648,-0.006377519574016333,0.006078558973968029,0.03637949004769325,-0.01883888430893421,-0.01254303753376007,0.10229506343603134,0.030852656811475754,0.03175802156329155,0.034501418471336365,0.04864826798439026,0.002547936048358679,0.013253983110189438,0.0013825793284922838,0.005744515918195248,-0.00673960754647851,0.0005129026249051094,-0.029573408886790276,-0.01985834166407585,-0.012471923604607582,0.06549521535634995,-0.04536512866616249,-0.026073873043060303,0.00302623538300395,-0.017232133075594902,-0.16484656929969788,-0.02317522093653679,0.010332547128200531,0.019800586625933647,0.018755896016955376,0.007267559412866831,-0.04651455581188202,-0.008252290077507496,-0.05571407079696655,0.0030791512690484524,-0.008902030996978283,-0.05935344472527504,-0.03555528447031975,-0.006814322900027037,0.008455416187644005,0.011471549980342388,-0.03828735277056694,0.003180229337885976,-0.006148651707917452,-0.01809459924697876,-0.01584664359688759,-0.004986935760825872,0.0011647958308458328,0.02747013233602047,-0.005459632724523544,-0.040668223053216934,0.03422011807560921,0.023104138672351837,0.03581148758530617,-0.0038027053233236074,-0.03070281259715557,-0.0035633330699056387,0.006804591044783592,-0.02214938960969448,0.010817429982125759,0.03487009555101395,0.012479551136493683,-0.034178487956523895,0.040220461785793304,-0.023724893108010292,0.03728761896491051,0.007548891473561525,0.01043584756553173,0.03216490522027016,-0.000002370464244449977,0.0018775475909933448,0.001868905615992844,0.02408755198121071,-0.026733197271823883,-0.02701369673013687,0.01901208609342575,-0.015576321631669998,0.020635848864912987,0.0196237750351429,-0.026706049218773842,-0.038717180490493774,0.0359671376645565,0.03563258796930313,-0.019775930792093277,-0.025220341980457306,0.027416976168751717,-0.029859328642487526,-0.0027612338308244944,-0.021988272666931152,-0.016300572082400322,-0.05101394280791283,0.036114588379859924,-0.02053597941994667,-0.016684742644429207,-0.041578259319067,0.046037789434194565,-0.00012549932580441236,0.009560276754200459,0.033475883305072784,0.04143727198243141,-0.011282065883278847,-0.034492310136556625,-0.032141897827386856,0.021652691066265106,-0.09542326629161835,0.006878771353513002,0.01475441176444292,0.011419989168643951,0.006948447786271572,-0.021275339648127556,0.000077637771028094,0.0034807384945452213,0.01214897632598877,-0.012587446719408035,0.2477962225675583,-0.06567452847957611,0.005905493628233671,-0.035446442663669586,0.029695114120841026,-0.028506575152277946,-0.00905423890799284,0.030912015587091446,0.0015939846634864807,-0.022526292130351067,0.023211048915982246,0.08221118152141571,0.016501711681485176,0.023929225280880928,0.011137891560792923,-0.0037380328867584467,-0.04160645231604576,-0.008150643669068813,0.04768519103527069,0.00833153910934925,0.02608908899128437,-0.05610985681414604,0.03219835087656975,0.038767337799072266,-0.04847998917102814,-0.014260293915867805,-0.01373541634529829,0.004140110686421394,-0.068323515355587,0.058502696454524994,-0.004039892926812172,-0.00225240015424788,0.04673158377408981,0.0009021434816531837,-0.037177614867687225,0.0023973791394382715,0.031122731044888496,-0.013641079887747765,0.04600062593817711,0.03251269459724426,-0.067876435816288,-0.03420724719762802,-0.03938496112823486,-0.013217626139521599,-0.0019212537445127964,-0.013255178928375244,-0.00023414248425979167,-0.01202174462378025,-0.011882612481713295,-0.012955070473253727,-0.012060627341270447,-0.0316903255879879,-0.032929759472608566,-0.011401939205825329,0.015510107390582561,-0.002861127257347107,-0.05038236454129219,0.014625594019889832,-0.03174513578414917,0.018849948421120644,-0.011921608820557594,0.01878812350332737,-0.004907681606709957,-0.016355440020561218,-0.011277216486632824,-0.022957684472203255,-0.03493959829211235,0.0242842435836792,0.010523312725126743,0.0029918283689767122,0.01731826364994049,0.0434177927672863,0.04536113142967224,0.005899326875805855,-0.02624325267970562,-0.02780104987323284,0.021129924803972244,0.06744693964719772,-0.02625817432999611,-0.03314594924449921,-0.06058453395962715,0.01107413973659277,0.0005933672655373812,0.019110731780529022,0.01196519285440445,-0.005546544212847948,-0.06581202894449234,0.053842052817344666,-0.016027120873332024,0.013641669414937496,0.0048379492945969105,-0.011742599308490753,-0.02340487577021122,0.0133076636120677,0.014090636745095253,0.0026547040324658155,0.019534459337592125,-0.02945885807275772,-0.074823297560215,-0.03152056783437729,-0.03758035972714424,-0.026444297283887863,-0.0054604168981313705,0.047278180718421936,-0.03080526366829872,-0.0129322474822402,-0.016756024211645126,0.012909415178000927,0.04499583691358566,0.02599800005555153,-0.08215729147195816,0.030681995674967766,-0.045516449958086014,-0.030924001708626747,0.015357541851699352,0.005672708619385958,0.05698545277118683,0.025883488357067108,-0.039098139852285385,0.009297764860093594,0.006439089309424162,0.03656395152211189,0.006136595271527767,-0.015970425680279732,0.020676935091614723,-0.004592530429363251,0.01932559162378311,0.03770643100142479,-0.005947182420641184,-0.00456518679857254,0.04616813734173775,-0.032262880355119705,-0.0034035046119242907,0.02578217349946499,0.07119105756282806,0.0009019276476465166,-0.00020144402515143156,0.0263783261179924,-0.011858311481773853,0.012813321314752102,-0.002207244047895074,-0.006390617229044437,0.01118310634046793,-0.03526083007454872,-0.007872614078223705,-0.028902949765324593,-0.006614424753934145,-0.010353640653192997,-0.006918849889189005,0.019671844318509102,0.03271644935011864,-0.009799596853554249,0.04328741878271103,-0.02467854879796505,0.004897665698081255,-0.014821657910943031,-0.009970112703740597,0.031810760498046875,0.02585534378886223,-0.01617761328816414,-0.0012417195830494165,0.001780971302650869,0.03796999529004097,0.060914453119039536,-0.024416236206889153,0.026329826563596725,0.016422845423221588,0.028576282784342766,-0.009269677102565765,-0.024753736332058907,-0.04987749457359314,-0.04227478429675102,-0.03350789099931717,0.025418370962142944,0.004519742447882891,-0.0005198808503337204,-0.03015977144241333,0.003112348262220621,-0.03090040385723114,-0.04234408959746361,0.008388728834688663,0.01044484693557024,-0.043807774782180786,0.0073036798276007175,-0.014719650149345398,0.011621689423918724,0.0029017587658017874,-0.011906110681593418,0.029582461342215538,-0.022038767114281654,-0.009879845194518566,0.1252334862947464,0.03407463803887367,-0.012811156921088696,0.03095143847167492,0.016016388311982155,0.07265887409448624,0.0014592432416975498,0.033991824835538864,-0.03629111871123314,-0.02874128706753254,0.02710583433508873,0.005663713905960321,-0.036385562270879745,0.00847296230494976,0.01427471823990345,0.02872512675821781,0.07295460999011993,-0.005167128052562475,0.0409306064248085,0.021406134590506554,-0.028324872255325317,-0.02878503128886223,-0.010494135320186615,-0.030567796900868416,-0.005963783711194992,0.04276997968554497,0.03483914956450462,0.005538844969123602,-0.029673248529434204,0.02731916308403015,-0.0354059636592865,-0.014378214254975319,-0.050963953137397766,-0.025876671075820923,-0.027480192482471466,0.017748234793543816,0.0037248749285936356,0.021122898906469345,0.00415695458650589,-0.00812207069247961,-0.02948264218866825,0.008402983658015728,-0.029984673485159874,-0.008286665193736553,-0.007792092859745026,0.024669421836733818,0.02900351956486702,0.0474298931658268,0.0010813978733494878,-0.013866707682609558,0.015163694508373737,-0.004526626784354448,0.08693241328001022,0.015192810446023941,0.015763888135552406,0.020872492343187332,0.014199832454323769,0.017317071557044983,0.02867395058274269,0.04181639850139618,-0.0673382431268692,0.00038180200499482453,-0.010729266330599785,0.02290567010641098,0.029287472367286682,0.02138655073940754,-0.023993616923689842,-0.029337594285607338,-0.018093464896082878,-0.03415424004197121,0.03886410966515541,0.011665642261505127,-0.02354220300912857,-0.06732499599456787,-0.018545912578701973,-0.02861316315829754,-0.0355752632021904,-0.05349964275956154,-0.009004318155348301,-0.01613599993288517,0.017559602856636047,-0.03860373795032501,-0.03687899187207222,0.05517978593707085,-0.0039040104020386934,0.02268175408244133,0.018963728100061417,-0.04266837611794472,0.026174163445830345,-0.034371353685855865,0.03379412367939949,0.07414068281650543,0.001171858049929142,-0.007832491770386696,-0.012010241858661175,0.016643360257148743,0.03648984432220459,-0.005516232922673225,-0.01910831220448017,-0.008561882190406322,0.00012027357297483832,-0.05862501263618469,-0.003986238967627287,-0.021311314776539803,0.0037882495671510696,-0.0366208590567112,0.030224017798900604,-0.01349538005888462,0.008561593480408192,-0.012147135101258755,0.015958357602357864,0.017542967572808266,0.0016264064470306039,0.016904784366488457,0.022353097796440125,0.008566495962440968,-0.07025375217199326,-0.021910665556788445,0.028164321556687355,-0.030511511489748955,-0.013321415521204472,-0.027937769889831543,0.04643931984901428,0.028934506699442863,-0.028159094974398613,0.04306330159306526,-0.06318844109773636,0.02364487200975418,0.004641239531338215,0.02160121500492096,0.006764399819076061,-0.011303579434752464,0.047327857464551926,-0.07107075303792953,0.02580772526562214,-0.005529802292585373,0.014313340187072754,-0.03465649485588074,-0.026804301887750626,-0.051044970750808716,-0.02170189656317234,-0.004483889788389206,-0.016983279958367348,0.016760148108005524,0.00273747555911541,0.021187614649534225,-0.01589357480406761,0.049464281648397446,-0.01685500144958496,0.0020058699883520603,-0.023339757695794106,0.0697816014289856,-0.0445985347032547,-0.013783719390630722,-0.030389973893761635,-0.012182677164673805,-0.04018552601337433,-0.02072031982243061,-0.013873307965695858,0.016613174229860306,-0.02974849008023739,-0.005632481072098017,-0.051535289734601974,0.01501807663589716,0.008572623133659363,0.009746150113642216,0.026791365817189217,0.02631581947207451,0.00789113063365221,-0.0015932830283418298,-0.0007603029953315854,-0.006218732800334692,-0.03256353363394737,-0.0421898327767849,0.03762044012546539,0.010496845468878746,-0.04750310629606247,-0.022518150508403778,-0.026656877249479294,0.002422794932499528,0.03844606876373291,-0.0007439504843205214,0.04629329591989517,-0.05742936208844185,0.04867887124419212,-0.014487303793430328,0.05136546492576599,0.027811996638774872,0.02254735305905342,-0.011078990064561367,-0.03159442916512489,-0.030949562788009644,-0.02499667927622795,0.009972796775400639,-0.0040645175613462925,0.004254027269780636,-0.012651371769607067,0.021271545439958572,0.03234624117612839,-0.007554557174444199,0.01774730160832405,-0.0035012979060411453,0.013765768148005009,-0.1414947360754013,-0.01832735538482666,-0.002829961944371462,0.01610146462917328,-0.014878368936479092,-0.001645191921852529,-0.04377200827002525,-0.057909246534109116,0.0060193175449967384,-0.0005785109242424369,0.008446840569376945,0.023367881774902344,0.050071340054273605,-0.04235897958278656,-0.025060458108782768,0.034785035997629166,-0.007839580997824669,-0.007896210066974163,-0.03123636171221733,0.011899648234248161,0.001788551453500986,-0.035044703632593155,0.014253411442041397,0.01294164638966322,-0.02800733596086502,-0.002608496230095625,0.014776733703911304,0.011368980631232262,-0.027179479598999023,-0.0005495816585607827,0.04752742871642113,-0.05733673274517059,0.014177781529724598,0.0587163120508194,0.0011387354461476207,0.022849513217806816,-0.011864555068314075,0.052875347435474396,-0.029774943366646767,0.015848204493522644,-0.010202531702816486,0.020872890949249268,0.004335349891334772,0.049570053815841675,-0.0073626977391541,0.043566420674324036,0.017172813415527344,-0.02764936350286007,-0.035707514733076096,0.031704921275377274,0.02057548612356186,0.052390437573194504,-0.052438732236623764,0.021589742973446846,-0.02460150420665741,-0.009486336261034012,-0.02160997875034809,-0.028147630393505096,-0.01430593617260456,0.05099319666624069,-0.027260256931185722,0.01536715216934681,-0.025557998567819595,-0.01950904354453087,0.042809028178453445,0.04031122103333473,-0.05918349698185921,0.024346908554434776,-0.014212695881724358,-0.014223278500139713,-0.03580397740006447,0.02054532989859581,0.0003407377516850829,-0.020835695788264275,0.017902756109833717,0.019102435559034348,0.03394888713955879,-0.020571552217006683,0.0016422736225649714,-0.013957986608147621,-0.035933203995227814,-0.002024022862315178,-0.05016031488776207,0.031495802104473114,0.023873426020145416,-0.005490300711244345,-0.015699423849582672,0.010922315530478954,-0.047166429460048676,0.004345203749835491,-0.09521757066249847,-0.044877227395772934,-0.012460810132324696,-0.007168988697230816,-0.03882618993520737,0.011134395375847816,-0.018462402746081352,-0.011555801145732403,-0.011266262270510197,0.0038886666297912598,0.009347420185804367,-0.04456571489572525,0.00643203966319561,-0.038853492587804794,-0.008148262277245522,0.02039075829088688,0.01813989318907261,0.0000024938776732597034,-0.0016091945581138134,0.03641415387392044,0.016949592158198357,0.01439194567501545,-0.02343241684138775,0.034918881952762604,-0.08722670376300812,-0.008820371702313423,0.009013926610350609,-0.0087872464209795,-0.01910388469696045,-0.021287130191922188,0.005803823936730623,-0.01081753522157669,-0.03459012508392334,-0.035629794001579285,0.09255639463663101,0.06128223240375519,-0.015804052352905273,-0.003169276751577854,-0.033609598875045776,-0.01498675998300314,0.005669059697538614,-0.026897713541984558,0.007338416296988726,0.01802217960357666,0.03583948686718941,-0.006337699480354786,0.004041528329253197,0.03908070921897888,-0.078828826546669,-0.010079068131744862,-0.05394871160387993,-0.052832573652267456,-0.013923757709562778,-0.015941660851240158,0.02019292302429676,0.008119544014334679,0.04326528683304787,-0.007272137328982353,-0.021910594776272774,-0.050893139094114304,-0.012829945422708988,0.012136626057326794,-0.0021280241198837757,0.026238389313220978,0.006509177852421999,0.031635962426662445,-0.016812961548566818,-0.03017020784318447,0.01646684855222702,0.04253275692462921,-0.02822125144302845,-0.09668517857789993,0.005082426592707634,-0.018080638721585274,-0.025741204619407654,0.05368131399154663,-0.01818610355257988,-0.010003166273236275,-0.0727248266339302,0.02332368679344654,-0.007574579678475857,-0.0009255565237253904,-0.019380886107683182,-0.00631140498444438,0.01995561271905899,0.01103705819696188,-0.0206254031509161,0.010359345003962517,-0.014148950576782227,-0.007762995548546314,0.025201953947544098,-0.04324554651975632,0.026681294664740562,-0.010205096565186977,0.006342718843370676,0.015586625784635544,-0.01143532246351242,-0.025948362424969673,0.023750023916363716,-0.03267718479037285,0.0151507668197155,-0.006636814214289188,0.0017782457871362567,-0.018887750804424286,0.03424619138240814,0.019911034032702446,0.011477030813694,0.08054868131875992,0.029147829860448837,0.038938671350479126,-0.07024800777435303,0.04285036772489548,0.021551458165049553,0.0029276928398758173,-0.008696537464857101,-0.005248339846730232,-0.013475638814270496,-0.04346988722681999,-0.013326898217201233,-0.01898779533803463,0.0033441465348005295,0.013461056165397167,-0.03930509835481644,-0.009904368780553341,0.021816851571202278,-0.01652504689991474,0.008341929875314236,0.05233392491936684,-0.03281184658408165,-0.03795396909117699,-0.0028272594790905714,0.037687964737415314,0.0510084331035614,-0.04624408110976219,-0.028552688658237457,0.010265333577990532,0.03390474617481232,0.025636212900280952,-0.013322306796908379,0.020282471552491188,0.01605643518269062,-0.02150004357099533,-0.02038978599011898,0.009993166662752628,0.04387180134654045,0.023464413359761238,-0.03903204947710037,0.0018122147303074598,-0.024540765210986137,-0.0320994071662426,0.058302830904722214,0.013909065164625645,0.007586050778627396,-0.011484246701002121]]}}},"searchableProperties":["id","title","path","content","embedding","embeddingModel","created_at","ctime","mtime","tags","extension"],"searchablePropertiesWithTypes":{"id":"string","title":"string","path":"string","content":"string","embedding":"vector[1024]","embeddingModel":"string","created_at":"number","ctime":"number","mtime":"number","tags":"string[]","extension":"string"},"frequencies":{"id":{"1":{"b592a2d39b1e3a37d20f8163273b46be":1},"2":{"2b666891e3e6ccafb49cc7fcb282d137":1},"3":{"97daa85f47b9506c6647ec254d96d616":1}},"title":{"1":{"obsidian":1},"2":{},"3":{}},"path":{"1":{"obsidian":0.5,"md":0.5},"2":{"md":1},"3":{"md":1}},"content":{"1":{"1":0.04,"2":0.04,"3":0.04,"4":0.04,"5":0.04,"16":0.04,"17":0.04,"18":0.04,"31":0.04,"2025":0.04,"note":0.04,"title":0.04,"obsidian":0.04,"metadata":0.04,"created":0.04,"03":0.04,"modified":0.04,"block":0.04,"content":0.04,"-":0.04,"todos":0.04,"markdown":0.04,"notion":0.04,"graph":0.04,"view":0.04},"2":{"1":0.038461538461538464,"2":0.038461538461538464,"3":0.038461538461538464,"4":0.038461538461538464,"16":0.038461538461538464,"17":0.038461538461538464,"18":0.038461538461538464,"31":0.038461538461538464,"2025":0.038461538461538464,"note":0.038461538461538464,"title":0.038461538461538464,"metadata":0.038461538461538464,"created":0.038461538461538464,"03":0.038461538461538464,"modified":0.038461538461538464,"block":0.038461538461538464,"content":0.038461538461538464,"obsidian":0.038461538461538464,"-":0.038461538461538464,"pasted":0.038461538461538464,"image":0.038461538461538464,"20241211202255":0.038461538461538464,"png":0.038461538461538464,"20241211201706":0.038461538461538464,"excel":0.038461538461538464,"a1":0.038461538461538464},"3":{"1":0.018518518518518517,"2":0.018518518518518517,"3":0.018518518518518517,"4":0.018518518518518517,"5":0.018518518518518517,"6":0.018518518518518517,"7":0.018518518518518517,"8":0.018518518518518517,"16":0.018518518518518517,"17":0.018518518518518517,"18":0.018518518518518517,"31":0.018518518518518517,"2025":0.018518518518518517,"711884":0.018518518518518517,"note":0.018518518518518517,"title":0.018518518518518517,"metadata":0.018518518518518517,"created":0.018518518518518517,"03":0.018518518518518517,"modified":0.018518518518518517,"block":0.018518518518518517,"content":0.018518518518518517,"obsidian":0.018518518518518517,"https":0.018518518518518517,"practicum":0.018518518518518517,"yandex":0.018518518518518517,"ru":0.018518518518518517,"blog":0.018518518518518517,"instrumenty-analitiki":0.018518518518518517,"power":0.018518518518518517,"bi":0.018518518518518517,"finalytics":0.018518518518518517,"pro":0.018518518518518517,"inform":0.018518518518518517,"waterfallyears":0.018518518518518517,"fin-ctrl":0.018518518518518517,"factorniy-analiz-chto-eto-i-kak-ego-provodit":0.018518518518518517,"glossary":0.018518518518518517,"faktorniy-analiz":0.018518518518518517,"kontur":0.018518518518518517,"compass":0.018518518518518517,"spravka-compass":0.018518518518518517,"50588-faktornyy_analiz_pribyli_ot_prodazh":0.018518518518518517,"rb":0.018518518518518517,"story":0.018518518518518517,"faktornyj-analiz":0.018518518518518517,"www":0.018518518518518517,"oracle":0.018518518518518517,"com":0.018518518518518517,"cis":0.018518518518518517,"business-analytics":0.018518518518518517,"what-is-business-analytics":0.018518518518518517,"habr":0.018518518518518517,"articles":0.018518518518518517}},"embeddingModel":{"1":{"bge-m3":0.5,"latest":0.5},"2":{"bge-m3":0.5,"latest":0.5},"3":{"bge-m3":0.5,"latest":0.5}},"tags":{},"extension":{"1":{"md":1},"2":{"md":1},"3":{"md":1}}},"tokenOccurrences":{"id":{"b592a2d39b1e3a37d20f8163273b46be":1,"2b666891e3e6ccafb49cc7fcb282d137":1,"97daa85f47b9506c6647ec254d96d616":1},"title":{"obsidian":1},"path":{"obsidian":1,"md":3},"content":{"1":3,"2":3,"3":3,"4":3,"5":2,"6":1,"7":1,"8":1,"16":3,"17":3,"18":3,"31":3,"2025":3,"711884":1,"note":3,"title":3,"obsidian":3,"metadata":3,"created":3,"03":3,"modified":3,"block":3,"content":3,"-":2,"todos":1,"markdown":1,"notion":1,"graph":1,"view":1,"pasted":1,"image":1,"20241211202255":1,"png":1,"20241211201706":1,"excel":1,"a1":1,"https":1,"practicum":1,"yandex":1,"ru":1,"blog":1,"instrumenty-analitiki":1,"power":1,"bi":1,"finalytics":1,"pro":1,"inform":1,"waterfallyears":1,"fin-ctrl":1,"factorniy-analiz-chto-eto-i-kak-ego-provodit":1,"glossary":1,"faktorniy-analiz":1,"kontur":1,"compass":1,"spravka-compass":1,"50588-faktornyy_analiz_pribyli_ot_prodazh":1,"rb":1,"story":1,"faktornyj-analiz":1,"www":1,"oracle":1,"com":1,"cis":1,"business-analytics":1,"what-is-business-analytics":1,"habr":1,"articles":1},"embeddingModel":{"bge-m3":3,"latest":3},"tags":{},"extension":{"md":3}},"avgFieldLength":{"id":1,"title":0.3333333333333333,"path":1.3333333333333333,"content":35,"embeddingModel":2,"tags":0,"extension":1},"fieldLengths":{"id":{"1":1,"2":1,"3":1},"title":{"1":1,"2":0,"3":0},"path":{"1":2,"2":1,"3":1},"content":{"1":25,"2":26,"3":54},"embeddingModel":{"1":2,"2":2,"3":2},"tags":{},"extension":{"1":1,"2":1,"3":1}}},"docs":{"docs":{"1":{"title":"   Obsidian    ","path":" /   Obsidian    .md","embeddingModel":"bge-m3:latest","ctime":1742217511592,"mtime":1742217511752,"tags":[],"extension":"md","metadata":{"created":"2025/03/17 16:18:31","modified":"2025/03/17 16:18:31"},"id":"b592a2d39b1e3a37d20f8163273b46be","content":"\n\nNOTE TITLE: [[   Obsidian    ]]\n\nMETADATA:{\"created\":\"2025/03/17 16:18:31\",\"modified\":\"2025/03/17 16:18:31\"}\n\nNOTE BLOCK CONTENT:\n\n##   ?\n\nObsidian -     ,      .          todos    markdown.    Notion, Obsidian  Markdown     . \n## \n\n  Obsidian      ,   ,        ,       .\n\n     (),      ,       ,     .\n\nObsidian  ,         ,    .\n\n        -,            -.\n### \n\n      ,    ,       .\n\nObsidian     ,    ,        .\n\n      ,        .\n\n    , Obsidian          ,       .\n\n##   \n\n### 1. ** **\n\n       . ,         `#`, `#`  `#`.        .\n### 2. **  **\n\n       . ,         .\n### 3. **-**\n\nObsidian     .         ,     `[[ ]]`.\n### 4. **  ( )**\n\n    Obsidian          .          ,      .\n\n     Graph view ( )   .\n### 5. ****\n\n      .    ,   ,        .\n\n  ,       ,        .     ,          .","embedding":[0.0199346,0.010596671,-0.024520257,0.0166942,0.035417512,-0.05361382,0.04758389,0.07183147,-0.003872758,-0.028076496,-0.008478975,0.020630827,-0.024582293,0.015394179,-0.018882837,-0.019189287,-0.03014389,0.021278618,0.02449741,0.0123974625,-0.03716718,-0.0282279,0.033158913,-0.0067927255,-0.023146147,0.061213017,-0.0026437005,-0.014644125,-0.027468354,0.025511688,0.049359933,-0.028994942,0.037044484,-0.0025328295,0.0085452525,-0.048321765,-0.03579561,0.006338697,-0.098787874,-0.029916104,0.013266266,-0.0021534183,-0.06701722,0.0014573135,0.0022121482,0.0072701834,-0.021503678,-0.055995442,-0.010765341,-0.0030105358,-0.012993066,-0.00554566,-0.00041833043,-0.04164841,0.0043668305,0.028599864,-0.010409759,-0.019384148,-0.0002342405,-0.03045137,-0.015618361,0.037535038,-0.011460367,-0.02804698,-0.027397355,0.02197811,-0.001497727,0.008224092,0.030183936,-0.026513465,0.0024451716,-0.005867832,-0.04037728,-0.055969615,0.0023722046,-0.024131672,-0.0025892518,0.010571214,-0.0012142521,-0.036557462,0.10101734,-0.006812336,0.024893902,0.000052607487,-0.033750135,-0.0060770023,-0.007059316,0.062004253,0.013406853,0.03372837,-0.037342906,0.03823622,0.008949413,-0.02470921,-0.016181448,0.0008002248,0.04389052,-0.029878674,-0.01954381,-0.006354682,-0.054878652,0.024449186,0.022785079,0.06274897,0.0053586927,-0.002814699,-0.015592632,0.016173527,-0.046303015,0.0012161641,-0.027855173,-0.0074781235,-0.025554303,-0.013653229,0.022349408,-0.0071493317,-0.013035146,-0.020690847,0.011410082,0.00882194,0.009787462,0.049955674,0.010291069,-0.00628512,0.02239804,0.016925279,0.019656925,0.037913356,-0.043814704,0.013183146,0.01467851,0.04528422,0.019157052,-0.0011946135,-0.035703238,0.005119775,0.047563445,0.032588925,0.018365184,-0.0066826805,-0.016709523,0.024783136,-0.020357668,-0.025691353,0.05173399,-0.025565876,0.015223734,0.011604824,0.0012997137,0.04246539,-0.034007266,-0.01907648,-0.0045946985,-0.013651071,0.040194508,-0.0030761666,0.038552165,-0.0044455878,0.018188706,-0.026165523,0.014385866,-0.009788322,0.0359351,0.027930953,0.019582031,0.010912035,0.0060318923,0.012420372,-0.0010207808,-0.013307181,0.017752782,-0.053578354,0.052492432,0.019398708,-0.0013213003,0.058873266,0.028384283,0.03976216,0.026711814,-0.050274517,-0.006555526,0.010882374,0.023195816,-0.025883323,0.015093278,-0.0075499136,-0.009916848,0.010985413,0.004346365,0.074940994,-0.024727624,-0.026901774,0.024245938,0.037341513,0.0042608506,-0.005400686,-0.011829866,0.012583112,0.03579224,-0.03473849,0.005199701,0.011505209,-0.0449577,-0.0022305094,0.012376812,-0.002137858,-0.009967738,-0.053747516,0.036103345,0.024304682,0.050691716,0.020188395,-0.014069252,-0.008927699,-0.016369365,-0.019178433,-0.017249893,-0.0076935133,0.016051779,0.018257832,-0.008465398,-0.03700249,0.0072964937,-0.06276339,-0.007925813,0.025351096,-0.049707092,0.023916394,0.027837716,0.03390508,-0.06612941,0.07685547,-0.025892856,-0.029073741,-0.011098865,0.0067334846,-0.04440735,0.023400912,-0.006231387,-0.0017709078,-0.0112707615,-0.05242665,0.008583636,-0.050843436,-0.06634566,0.03481367,-0.0009956724,0.025964603,-0.020819996,-0.0077954275,-0.014232834,0.037636455,0.020502321,-0.020215595,0.0084803505,-0.020270783,0.019666247,-0.029284846,-0.021326326,0.008260796,0.016306348,-0.024404246,-0.0051358035,0.056224313,-0.013830663,-0.008645823,-0.009253342,-0.0351267,0.013288418,0.042410344,0.02599512,-0.012653889,-0.021754403,-0.03237902,-0.02686073,-0.029089656,-0.028847331,-0.02572704,0.050231084,-0.0698899,0.00044676097,-0.04117808,0.013990243,-0.024271198,-0.03451491,0.049078315,-0.00478165,0.029917343,0.007860897,0.0033606691,0.0062480923,-0.0019719931,0.07477972,-0.042694554,0.0022282226,0.030877154,-0.03122894,-0.18418664,-0.0441683,0.029300505,0.01466683,0.011604712,-0.0064495555,0.0051577957,0.003335899,-0.03054795,-0.04260157,-0.041060697,-0.12896831,-0.025868844,-0.0029704922,0.032864045,0.018629821,0.008987783,0.006713708,-0.042428356,-0.073849715,0.009867004,0.0007517092,0.05768916,0.044011794,0.019267581,-0.036428995,0.02958905,0.06685218,-0.026198646,0.022048123,-0.013600648,0.021502461,-0.032393567,-0.018415745,0.019627606,-0.006864578,-0.007231121,-0.020099606,0.032574832,0.011220358,0.04047587,0.04326288,0.0031374535,-0.038097985,0.025913619,-0.027308658,-0.030961338,-0.007077001,-0.015241163,0.021800185,-0.03990002,-0.009706553,0.006076929,0.022115277,-0.011009826,0.03114176,-0.0070888824,0.026776675,0.03834018,0.0065665697,-0.035395216,-0.054469224,-0.0657924,-0.009179529,0.032168113,-0.02545173,-0.0110240495,-0.028254671,0.025911402,-0.061674736,0.005265068,-0.0026759156,-0.04941698,0.02746561,0.0047689853,-0.011712096,0.0016856487,-0.03286547,-0.019696172,-0.082645856,0.025935525,0.016013714,0.004197969,0.021437315,-0.008984146,0.031736713,-0.031338073,-0.021868648,-0.012237961,0.34248668,-0.04571414,-0.0015410751,0.00071091903,0.007091178,0.014870787,-0.0036863906,0.020457262,-0.009143393,0.010192736,-0.018053485,0.039209794,0.023134325,0.013615278,0.04056478,0.066979975,-0.045076102,0.017147575,-0.018248778,0.008032833,0.007011184,-0.04765293,0.0046638018,0.00321642,-0.066320285,0.029048458,0.016532224,0.011603934,-0.04519987,0.029096203,-0.014508011,0.022954712,-0.007563582,-0.046982557,-0.027407793,0.010750888,-0.058340248,-0.04306211,-0.026790867,-0.008070735,0.022902234,-0.04422965,0.004688085,-0.0007484472,-0.043427803,-0.033852868,0.020403307,0.027415797,0.03582858,-0.04781966,0.04419803,0.0009194305,-0.034997296,-0.0080771735,0.00936435,-0.007664817,-0.04216857,-0.014410503,-0.04187826,0.00045295485,0.032967962,0.024098596,-0.02145657,0.013883401,0.015342458,0.0030304268,-0.013698596,-0.024149742,0.013633879,-0.0009625404,0.052836612,0.021926472,0.040792353,-0.012965956,-0.023231326,-0.012285027,0.019998543,0.03278959,0.015298057,-0.014901052,-0.025105407,0.017562402,0.016741915,0.031699315,0.033775907,0.027815323,-0.011184435,0.044476576,-0.011847833,-0.032035045,0.010294269,-0.03867128,-0.032557793,0.010173898,0.0131921675,-0.0068703196,0.010742295,-0.049260657,-0.025198976,-0.020456474,0.00617207,0.0008963788,0.025955126,0.038187977,-0.0036092591,-0.022713585,-0.06903927,-0.02486507,0.005348851,-0.020358905,-0.027476573,0.023392562,0.014104515,-0.012769923,0.05035134,0.0122967195,0.022447102,-0.005436709,-0.010850277,-0.0010966174,0.00058146415,-0.019831954,0.039494004,-0.002519806,-0.012813749,-0.06380102,-0.005617602,-0.0015249801,-0.017046928,-0.011899341,0.030853923,0.018166339,-0.013063459,0.008337405,-0.0035920977,-0.0102031045,0.007558825,-0.036991213,0.017232323,0.036975626,0.0070821135,-0.029131575,-0.0030098944,0.01805526,-0.02543481,0.0075422297,0.009822104,-0.031819183,-0.025815152,-0.0051146597,-0.002383781,-0.01191316,0.024103558,-0.0077797933,-0.008968317,0.043650303,-0.0013563649,0.018067567,-0.036388017,-0.036091164,-0.026540698,0.0230887,0.0098695895,0.057081643,-0.0075148013,0.0007737431,0.007749909,0.03677049,-0.023592792,-0.0009627265,0.014418276,-0.0674967,-0.009423227,-0.010149565,0.012928803,0.0049099526,-0.009419894,0.022590136,0.009590607,0.00505063,0.027048983,0.012702073,-0.038946416,0.03152151,-0.042117476,-0.010267103,-0.028770275,0.010835985,0.03451629,-0.03329874,0.01773452,0.06821885,0.0036078272,-0.0056012524,0.014214783,-0.020391846,0.0050260574,-0.0011844294,-0.0045474507,-0.0013796549,0.02669493,0.02888506,0.020768382,0.047838803,0.03432906,-0.008722087,0.01986227,0.047975074,-0.0035842217,-0.03919641,0.019768538,-0.014453786,0.013591898,-0.018008664,-0.02599997,-0.025825668,0.0342407,0.028379506,0.01912915,-0.025054114,-0.022429788,-0.04039011,-0.0066717644,-0.023055693,0.0020641338,0.009450168,0.012050634,0.020400807,-0.05714438,0.0032403355,-0.02234576,-0.01602176,0.011754967,-0.03102854,0.0020046409,-0.03713688,0.023674378,0.012356484,0.012090956,0.031492412,-0.027758157,-0.017583622,0.02543766,0.045429707,0.022228384,0.00652466,-0.0010949832,0.032754406,-0.035772245,-0.020271026,0.019549442,-0.010373266,-0.085164584,-0.035873253,0.021212202,0.06409595,-0.007206236,-0.018187797,-0.021131676,0.0081562335,0.015144222,0.017078081,0.0036206793,-0.01094621,0.010590942,0.009837603,-0.040767577,-0.051502805,-0.017800419,-0.033215165,-0.014269276,-0.025097076,-0.03888787,-0.016995706,0.012338,-0.04743527,0.027699692,-0.009048625,-0.005488426,0.0034293164,-0.077647045,-0.010005615,0.011799327,-0.00009859206,-0.016995328,-0.03213381,-0.0044586384,0.025435634,-0.027165158,-0.018817881,0.021500368,0.009694482,-0.03345269,-0.01933501,0.018765386,0.038244963,-0.05066563,0.049261298,0.027232893,-0.021456137,0.023666231,0.011066332,-0.009106136,-0.017946927,0.022628823,-0.002574042,0.009190446,0.01853679,-0.014155097,0.0020887463,-0.018938875,-0.043274727,-0.030471796,-0.00888249,-0.011535977,-0.018279415,-0.018213779,0.00522406,0.02707216,-0.014708653,-0.015088656,0.0049731703,-0.02972672,-0.004262924,-0.036288258,-0.021200208,-0.0045756977,-0.004541038,-0.013224742,-0.011940283,-0.038857173,0.011350778,0.030955816,0.018481508,-0.015607633,-0.0159012,0.08092419,-0.0012456492,0.0037967733,0.04752099,0.010420657,0.008496987,0.021356553,0.0044099493,0.03716372,0.015848145,0.0016042949,0.0018303061,-0.023992648,-0.01680476,-0.0115150185,0.041839316,-0.008580911,0.014691895,-0.0012067157,-0.03438083,-0.004796459,0.026558513,0.049731202,-0.016555006,-0.0047762482,0.063071325,0.043159407,0.0072363573,-0.0010343154,-0.010685826,-0.0054090093,0.0020105492,-0.013723097,-0.004397964,0.009509174,0.03470531,-0.010052956,-0.027392749,-0.03950073,-0.016597478,0.03572349,-0.0077490937,0.009788984,-0.027035099,-0.022022936,0.008724628,-0.013472564,-0.046225395,0.023474738,-0.011760791,-0.017129505,0.015215518,-0.028052382,0.040843718,-0.012886056,0.03777441,0.018705223,-0.0042401687,-0.12538594,0.038883634,-0.040491577,-0.015837502,0.031608872,-0.016529303,-0.00048639887,-0.050464656,-0.017676407,-0.061877605,0.056010425,-0.0029844588,0.021294788,-0.037379056,0.00075834105,-0.008311315,-0.026435638,0.00666254,0.0022915152,0.05130561,-0.013397419,-0.04539244,-0.055018984,-0.05212857,0.018109217,0.014515932,-0.03325955,0.027162287,-0.001966213,0.021593252,-0.0063788434,-0.04053466,-0.028417658,0.062217373,-0.02943399,0.043672483,-0.0069268025,-0.02225371,0.0031953375,0.05260922,0.01734641,-0.011694403,-0.034920506,0.009761765,0.0082745915,0.004208692,-0.0033837054,-0.008862365,-0.0089698555,0.015248821,-0.058124535,-0.032793395,0.023949936,0.014042573,0.021674601,0.0386876,-0.004400681,0.0049537197,-0.016719576,0.06320983,-0.011713924,0.043626215,-0.021668037,-0.020809973,-0.013386237,-0.0030639311,0.015902365,-0.014250948,-0.0029835887,-0.026419727,0.0012405216,-0.038352013,-0.0077404706,0.0031188668,0.028324552,0.0063066552,0.06334774,-0.017780952,0.042918965,0.020488983,-0.011424369,0.006971415,-0.025783513,0.061920397,0.06146581,-0.020635514,-0.008767948,-0.013411539,-0.007536858,-0.021874066,0.0034460798,0.032941766,0.006620029,0.03307933,-0.036763698,0.012017154,0.021799635,-0.0050136736,0.029799417,-0.0065772673,0.0046808594,0.043218505,-0.029435787,0.01878902,0.00068352674,0.00067813887,-0.061764758,0.011374238,-0.028584212,0.008189789,0.018761683,-0.021757528,-0.049597,0.0025744666,-0.029381413,-0.024081018,-0.008298187,0.016123058,0.0010116317,-0.008742574,0.037094146,0.033510443,-0.0068045733,-0.06905674,0.027952334,-0.0066326396,-0.018151594,0.010325889,0.038209215,-0.02624083,0.050972592,-0.025592275,-0.0038576003,-0.013779089,-0.0016036206,-0.0049761906,-0.002389189,0.08478018,-0.013247946,-0.044602633,-0.009807078,-0.005890258,0.005665156,-0.0077887964,-0.028297525,-0.047653064,0.017930891,0.001745473,-0.040057413,-0.027573796,0.0008348618,0.0148482965,0.025581447,0.020177417,-0.017850528,0.007295548,-0.0019038612,-0.050382864,-0.023442997,0.07669512,0.02279568,-0.012275352,0.0027299323,-0.02888723,-0.034301784,-0.0023281146,-0.004125005,-0.019323265,0.03605306,-0.002378763,0.0073338873,0.045527846,0.0013839756,0.06256944,0.0059328596,-0.05932713,0.0040544467,0.053742237,0.043473374,0.011852008,-0.025750704,-0.05590996,0.03082277,-0.027247593,0.038555674,-0.0072716223,-0.0004953483,0.016993955,-0.011587274,0.014258714,-0.016610371,0.019601766,0.020536155,0.041022543,0.017379146,-0.02539206,0.017171148,-0.012552349,-0.019495556,0.0062212585,-0.06012825,-0.023306957,-0.006102402,0.02015589,-0.0047830935,0.02963705,-0.035494518,-0.008786705,0.00331837,0.025339276,-0.016944628,0.029986683,-0.0012126715,0.07461804,0.022723798,0.0010067484,0.009393882,0.0015289454,0.06027806,-0.0076279277,-0.0053861155,0.050457094,0.0049235253,-0.029376054,-0.00086738984,-0.016202105,0.03040719,0.021888925,-0.0022415875,-0.023099074,0.0056331777,0.017955238,0.017537856,0.021473493,0.03449978,0.025842912,-0.014135353,0.050431397,0.00042029732,-0.003141308,-0.031584274,-0.034836017,0.00037488202,0.011946937],"created_at":1742221949649,"nchars":3330},"2":{"title":"       ","path":" /       .md","embeddingModel":"bge-m3:latest","ctime":1742217511587,"mtime":1742217511748,"tags":[],"extension":"md","metadata":{"created":"2025/03/17 16:18:31","modified":"2025/03/17 16:18:31"},"id":"2b666891e3e6ccafb49cc7fcb282d137","content":"\n\nNOTE TITLE: [[       ]]\n\nMETADATA:{\"created\":\"2025/03/17 16:18:31\",\"modified\":\"2025/03/17 16:18:31\"}\n\nNOTE BLOCK CONTENT:\n\n###      Obsidian\n\n      -             .                   .              .\n####  :\n\n1. **   Obsidian**\n    -   Obsidian       (, \"Obsidian\").     ,    .\n\t  ![[Pasted image 20241211202255.png]]\n2. **  **\n    -    .       `[[]]`,         Obsidian.\n     ![[Pasted image 20241211201706.png]]\n3. **   Excel**\n    -    Excel        .\n    -   `= \"!\" & A1`     (`!`)    .       Obsidian.\n    -       ,          .\n4. **    Obsidian**\n    -     Excel.\n    -     Obsidian     .\n    -     ,      ,    ,     .\n\n      ,           .      ,          .","embedding":[0.0061643734,-0.0030944396,-0.0656372,0.032398514,0.04791072,-0.0188644,0.059861533,0.069309935,0.0021800883,-0.0021224243,-0.01205746,0.017403206,-0.01994017,0.029710574,0.0009543263,-0.017690059,-0.007467979,0.007177756,0.013555126,0.0033980084,-0.05150276,0.028245546,0.019744284,-0.016016055,-0.024549697,0.045094404,-0.004334647,-0.014143064,-0.0037012836,-0.0010099098,0.021882944,-0.024609806,0.012485212,-0.022721069,0.0058872774,-0.04020248,-0.036716077,-0.016177732,-0.08864578,-0.01580389,0.0055827447,-0.019708063,-0.028112864,0.008055854,0.029884038,0.035396587,-0.0321385,-0.07434305,-0.022585772,-0.031812996,0.0049323943,-0.018326985,0.015590261,-0.039414153,-0.015008169,0.008459152,-0.0070844204,0.014791337,0.009893105,-0.04038688,-0.005339251,0.013381807,-0.023242233,-0.00679036,-0.01575785,0.0034210004,-0.016439151,0.031351805,0.01957521,-0.022460474,-0.011673635,-0.0092417635,-0.032461125,-0.062107928,-0.0051300973,-0.006830351,-0.010525352,-0.01669904,0.017033832,0.0025362808,0.08545627,-0.038537342,0.015785731,0.0004357177,-0.056564044,-0.044866532,0.006367569,0.033901416,0.020306189,0.024257384,-0.008126388,0.04833557,-0.0039423704,-0.031414185,0.03603773,-0.018119764,0.024854535,-0.014744745,0.00045635353,-0.023361107,-0.020979377,0.048966963,0.022201516,0.02229653,0.030279197,-0.02152989,-0.027486188,0.0017852085,-0.0017313234,-0.005013985,-0.030669913,-0.030391684,-0.018548764,0.000061000545,0.04332922,-0.013333079,-0.010904337,0.02216751,0.039342463,0.0050787902,0.00838309,0.066923566,0.013761313,-0.0008996501,0.0091805905,0.0005517937,-0.011535901,0.028176103,-0.043979745,-0.0013657188,-0.0057698977,0.05016841,0.01985923,0.014102251,-0.02893782,-0.012826725,0.03845726,0.041383997,0.01780511,-0.026466856,-0.0036405448,0.025087377,-0.01972614,0.01732422,0.026952252,-0.05346777,0.014608335,0.018896906,-0.0066094133,0.016380971,-0.020307401,-0.02909046,0.0038566028,-0.012326686,0.061284598,0.015944999,0.01677343,-0.021470245,0.008874924,-0.006990675,0.041865747,-0.043148365,0.0682915,0.04573563,0.007039388,-0.03502252,0.01506637,0.056787524,-0.013833728,-0.07826373,-0.015201262,-0.07310731,0.04215933,0.0126256775,0.008382538,0.057525452,0.07478851,0.037552904,0.040265046,-0.021385917,0.01874265,0.033986926,0.02936079,-0.058196545,-0.010515351,0.004005244,-0.01086845,0.023804106,0.031571697,0.03339947,-0.03229859,-0.024508614,0.026632039,0.057319198,0.0053305994,-0.03948713,-0.01685802,0.032819092,0.062198173,-0.017530313,-0.006589137,0.029904233,-0.044265725,0.024613596,-0.0036263065,0.026104892,-0.02938976,-0.04834779,0.039170936,-0.0008344435,0.062438615,0.021568917,-0.045346454,0.0077227424,0.013302447,-0.001063755,0.010624761,0.017045312,-0.0062613916,0.022242278,0.017181676,-0.03555672,-0.011373498,-0.041499894,0.018969765,0.03424528,-0.03634937,0.00921594,0.03276439,0.012762612,-0.051892024,0.064915866,0.004137653,-0.030511128,0.0042690947,-0.003289927,-0.037261922,-0.01274285,0.021487746,0.0056198603,-0.016003625,-0.073835246,0.019394351,-0.040370163,-0.03746161,0.02849911,-0.013327289,0.009012559,-0.016113192,-0.0070021166,0.00013239433,0.022384191,0.020370565,-0.005754512,0.002011613,-0.058322366,0.026748287,-0.023703134,-0.04558735,-0.012565701,-0.0026133312,-0.007065479,-0.028465845,0.05877947,0.009266709,-0.023409294,-0.0011643375,-0.008922914,0.002921816,0.043643862,0.026671879,-0.009434479,-0.016082518,-0.004922651,-0.007664336,0.0029524378,0.014133764,-0.023209952,0.05473169,-0.05981324,0.00783333,-0.04097088,0.020981016,-0.05136566,-0.0052981456,0.038025063,-0.038921874,0.002540115,-0.011729248,-0.014680306,-0.008316571,0.0054325988,0.0739222,-0.055470306,0.023923982,0.02008175,-0.014851678,-0.17597173,-0.01912417,-0.009133823,0.020187667,0.0048454246,0.007708186,-0.026987942,0.0050751464,0.0013289703,-0.037415925,-0.053485543,-0.12304284,-0.016872918,0.0015937001,0.05703264,0.044046376,0.012792434,0.0020783993,-0.040910456,-0.06302855,0.003726208,0.012481732,0.05869732,0.021505365,0.031114662,0.01226704,0.004626381,0.015727855,-0.030577365,0.020089777,-0.023794817,-0.0043306435,-0.024594616,-0.013820273,0.041107617,0.019588992,0.0029569352,-0.0006170364,0.061469242,0.0038393065,0.04597701,0.013423414,0.011417338,-0.037518688,0.013371905,-0.030105846,-0.0034017868,-0.0006953138,-0.007085635,0.005534502,-0.037513454,0.0029404708,0.036416102,0.016220134,-0.025308019,0.016038723,-0.011938698,0.050088424,-0.0017780839,0.019147495,-0.03612109,-0.043158427,-0.05411822,-0.039920058,0.028076569,-0.0092823375,0.008987097,-0.029504266,0.052158467,-0.073690355,0.028095223,0.00021105228,-0.032934435,0.0062301536,-0.0011984018,-0.01151179,-0.0014644573,-0.02834259,-0.0433625,-0.057218734,0.025773097,-0.004141156,-0.0313119,0.029412562,-0.024618385,-0.005601959,-0.023895307,-0.0334009,0.016105656,0.31963363,-0.015708914,-0.008070471,0.025677843,0.026224751,-0.013545233,-0.00875243,0.017784687,-0.018210905,0.0041685277,0.021924375,0.007031737,-0.020323884,0.02481356,0.031730637,0.038270436,-0.0458307,-0.007841351,0.0071482477,0.014752144,0.012200596,-0.033598516,-0.020369973,-0.021338804,-0.04370201,0.02518491,0.004919172,-0.0015403352,-0.048391197,0.018388037,-0.02271187,0.029492216,0.015789105,-0.047475718,-0.033075724,0.00006735029,-0.040244367,-0.045337267,-0.03434243,-0.02254666,0.01630582,-0.042533055,-0.03390221,0.00985098,-0.032679968,-0.009283401,0.012516376,0.005736027,0.023043897,-0.03964612,0.031267863,-0.012234591,-0.030650496,-0.003544487,0.014599991,0.029133443,-0.061105,0.013663598,-0.017762896,-0.015042182,0.0053751487,0.01883013,-0.0006779907,0.025555328,0.0013226105,0.009652151,-0.06537378,-0.035380837,-0.014381094,-0.0064284946,0.044289656,0.018990312,0.022633607,0.003909478,-0.0224704,0.013948105,0.029380344,0.02009677,0.01941159,0.00585771,-0.03236125,-0.0027545746,0.021452492,0.01696461,0.0046322485,0.0032242488,-0.027657762,0.020056548,-0.01286311,-0.02815806,-0.0124222385,-0.016048968,-0.0046578846,0.00887457,0.020965498,0.017039593,0.021966998,-0.05725716,0.007149718,-0.011082585,0.029253662,0.004672411,0.04166146,-0.011626837,0.032296836,-0.04488544,-0.06978407,-0.0062268362,-0.009604499,0.022674374,-0.032761853,0.0037356738,0.0022068424,-0.01396188,0.05018075,0.048889615,0.044288747,0.03566994,0.014620474,0.05101076,-0.02355147,-0.0084829945,0.029968288,-0.015586283,-0.036089826,-0.0631939,0.011638625,-0.02324392,-0.016618844,0.018718505,0.0031087988,0.022415401,0.000050008766,0.005207329,-0.015443203,-0.021839892,-0.0016227327,-0.023279594,0.016557332,0.03751898,-0.033934627,0.008275303,-0.0058833845,0.019401558,-0.013474113,0.03665886,-0.006193363,-0.018937193,-0.020346312,0.0067923786,-0.0016919064,-0.04386803,0.03914963,-0.04012487,0.021557113,0.005770123,0.0032001555,-0.036710326,-0.017536582,-0.01691157,-0.003810753,0.017785868,-0.0011106357,0.07611714,-0.007418373,0.021183947,-0.0058364994,0.04588275,-0.032512136,0.0032115325,-0.009121652,-0.054367054,0.0068601444,-0.009169481,0.014110191,-0.009360317,-0.004209835,0.029837616,0.008212807,-0.017962268,0.01942396,0.021745324,-0.03076412,0.02413234,-0.019555764,-0.011510669,-0.028141294,0.010497367,0.023911325,-0.04273101,0.032417692,0.05916388,-0.034845673,-0.0075389575,0.014113831,-0.0019090296,0.03198926,0.0016086036,0.015372293,-0.009530455,0.018535227,0.047556356,0.00591448,0.038279966,0.002761118,-0.021092033,0.030455373,0.047642406,-0.0045271693,-0.04591887,-0.013416201,-0.008236318,0.018180298,-0.021009132,-0.028899482,-0.01612519,0.05814103,0.05403284,